{"learner":{"attributes":{"best_iteration":"499","best_score":"0.9998650938617194","scikit_learn":"{\"_estimator_type\": \"classifier\"}"},"feature_names":[],"feature_types":[],"gradient_booster":{"model":{"gbtree_model_param":{"num_parallel_tree":"1","num_trees":"500"},"iteration_indptr":[0,1,2,3,4,5,6,7,8,9,10,11,12,13,14,15,16,17,18,19,20,21,22,23,24,25,26,27,28,29,30,31,32,33,34,35,36,37,38,39,40,41,42,43,44,45,46,47,48,49,50,51,52,53,54,55,56,57,58,59,60,61,62,63,64,65,66,67,68,69,70,71,72,73,74,75,76,77,78,79,80,81,82,83,84,85,86,87,88,89,90,91,92,93,94,95,96,97,98,99,100,101,102,103,104,105,106,107,108,109,110,111,112,113,114,115,116,117,118,119,120,121,122,123,124,125,126,127,128,129,130,131,132,133,134,135,136,137,138,139,140,141,142,143,144,145,146,147,148,149,150,151,152,153,154,155,156,157,158,159,160,161,162,163,164,165,166,167,168,169,170,171,172,173,174,175,176,177,178,179,180,181,182,183,184,185,186,187,188,189,190,191,192,193,194,195,196,197,198,199,200,201,202,203,204,205,206,207,208,209,210,211,212,213,214,215,216,217,218,219,220,221,222,223,224,225,226,227,228,229,230,231,232,233,234,235,236,237,238,239,240,241,242,243,244,245,246,247,248,249,250,251,252,253,254,255,256,257,258,259,260,261,262,263,264,265,266,267,268,269,270,271,272,273,274,275,276,277,278,279,280,281,282,283,284,285,286,287,288,289,290,291,292,293,294,295,296,297,298,299,300,301,302,303,304,305,306,307,308,309,310,311,312,313,314,315,316,317,318,319,320,321,322,323,324,325,326,327,328,329,330,331,332,333,334,335,336,337,338,339,340,341,342,343,344,345,346,347,348,349,350,351,352,353,354,355,356,357,358,359,360,361,362,363,364,365,366,367,368,369,370,371,372,373,374,375,376,377,378,379,380,381,382,383,384,385,386,387,388,389,390,391,392,393,394,395,396,397,398,399,400,401,402,403,404,405,406,407,408,409,410,411,412,413,414,415,416,417,418,419,420,421,422,423,424,425,426,427,428,429,430,431,432,433,434,435,436,437,438,439,440,441,442,443,444,445,446,447,448,449,450,451,452,453,454,455,456,457,458,459,460,461,462,463,464,465,466,467,468,469,470,471,472,473,474,475,476,477,478,479,480,481,482,483,484,485,486,487,488,489,490,491,492,493,494,495,496,497,498,499,500],"tree_info":[0,0,0,0,0,0,0,0,0,0,0,0,0,0,0,0,0,0,0,0,0,0,0,0,0,0,0,0,0,0,0,0,0,0,0,0,0,0,0,0,0,0,0,0,0,0,0,0,0,0,0,0,0,0,0,0,0,0,0,0,0,0,0,0,0,0,0,0,0,0,0,0,0,0,0,0,0,0,0,0,0,0,0,0,0,0,0,0,0,0,0,0,0,0,0,0,0,0,0,0,0,0,0,0,0,0,0,0,0,0,0,0,0,0,0,0,0,0,0,0,0,0,0,0,0,0,0,0,0,0,0,0,0,0,0,0,0,0,0,0,0,0,0,0,0,0,0,0,0,0,0,0,0,0,0,0,0,0,0,0,0,0,0,0,0,0,0,0,0,0,0,0,0,0,0,0,0,0,0,0,0,0,0,0,0,0,0,0,0,0,0,0,0,0,0,0,0,0,0,0,0,0,0,0,0,0,0,0,0,0,0,0,0,0,0,0,0,0,0,0,0,0,0,0,0,0,0,0,0,0,0,0,0,0,0,0,0,0,0,0,0,0,0,0,0,0,0,0,0,0,0,0,0,0,0,0,0,0,0,0,0,0,0,0,0,0,0,0,0,0,0,0,0,0,0,0,0,0,0,0,0,0,0,0,0,0,0,0,0,0,0,0,0,0,0,0,0,0,0,0,0,0,0,0,0,0,0,0,0,0,0,0,0,0,0,0,0,0,0,0,0,0,0,0,0,0,0,0,0,0,0,0,0,0,0,0,0,0,0,0,0,0,0,0,0,0,0,0,0,0,0,0,0,0,0,0,0,0,0,0,0,0,0,0,0,0,0,0,0,0,0,0,0,0,0,0,0,0,0,0,0,0,0,0,0,0,0,0,0,0,0,0,0,0,0,0,0,0,0,0,0,0,0,0,0,0,0,0,0,0,0,0,0,0,0,0,0,0,0,0,0,0,0,0,0,0,0,0,0,0,0,0,0,0,0,0,0,0,0,0,0,0,0,0,0,0,0,0,0,0,0,0,0,0,0,0,0,0,0,0,0,0,0,0,0,0,0,0,0,0,0,0,0,0,0,0,0,0,0,0,0,0,0,0,0,0,0,0,0,0,0,0,0,0,0,0,0,0,0,0],"trees":[{"base_weights":[9.552805E-1,-4.0767727E0,1.1227951E0,-6.140545E0,9.609982E-1,-1.8019915E-2,1.1392684E0,-6.876391E0,-8.227419E-1,-3.7887257E-1,1.1223462E0,-5.9189186E0,4.5030436E-1,8.8015324E-1,1.1419617E0,-7.4817805E0,-1.385126E0,4.228082E-1,-3.8484922E-1,-1.13914944E-1,1.138047E0,-3.8678598E-1,5.6149878E-2,5.732744E-1,-3.7982923E-1,-3.5927242E-1,9.286197E-1,1.142043E0,-5.611028E-2,-7.7528753E0,-3.7647367E0,1.5656078E-1,-7.204384E0,-3.744963E-1,8.5079193E-1,5.7322085E-2,-5.611028E-2,6.7198575E-1,-3.7735274E-1,9.603239E-1,-3.4497496E-1,1.1421148E0,-4.6514362E-2,-3.8886103E-1,-3.426474E-1,-3.2898912E-1,4.1395514E-3,-3.296298E-1,5.71881E-2,-3.844645E-1,-1.9915953E-2,-1.7565541E-1,4.8071142E-2,3.6984153E-2,-3.7194148E-1,4.9087044E-2,-3.2688257E-1,5.7107646E-2,-8.082594E-3],"categories":[],"categories_nodes":[],"categories_segments":[],"categories_sizes":[],"default_left":[0,0,0,0,0,0,0,0,0,0,0,0,0,0,0,0,0,0,0,0,0,0,0,0,0,0,0,0,0,0,0,0,0,0,0,0,0,0,0,0,0,0,0,0,0,0,0,0,0,0,0,0,0,0,0,0,0,0,0],"id":0,"left_children":[1,3,5,7,9,11,13,15,17,-1,19,21,23,25,27,29,31,33,-1,-1,35,-1,-1,37,-1,-1,39,41,-1,43,45,47,49,-1,51,-1,-1,53,-1,55,-1,57,-1,-1,-1,-1,-1,-1,-1,-1,-1,-1,-1,-1,-1,-1,-1,-1,-1],"loss_changes":[1.8632666E5,7.404571E4,4.0201562E3,1.9763172E4,2.860823E3,8.420281E3,1.4615625E2,1.4742344E4,5.270949E3,0E0,1.1113452E2,2.8749756E3,2.7977114E3,8.5639856E2,3.96875E1,3.9983281E3,3.965541E3,1.7734595E3,0E0,0E0,3.9693848E1,0E0,0E0,2.2345254E3,0E0,0E0,5.431041E2,3.20625E1,0E0,2.83125E1,2.9642454E3,2.3416406E3,3.0245166E2,0E0,2.4280048E2,0E0,0E0,1.5148555E3,0E0,3.5227905E2,0E0,1.05625E1,0E0,0E0,0E0,0E0,0E0,0E0,0E0,0E0,0E0,0E0,0E0,0E0,0E0,0E0,0E0,0E0,0E0],"parents":[2147483647,0,0,1,1,2,2,3,3,4,4,5,5,6,6,7,7,8,8,10,10,11,11,12,12,13,13,14,14,15,15,16,16,17,17,20,20,23,23,26,26,27,27,29,29,30,30,31,31,32,32,34,34,37,37,39,39,41,41],"right_children":[2,4,6,8,10,12,14,16,18,-1,20,22,24,26,28,30,32,34,-1,-1,36,-1,-1,38,-1,-1,40,42,-1,44,46,48,50,-1,52,-1,-1,54,-1,56,-1,58,-1,-1,-1,-1,-1,-1,-1,-1,-1,-1,-1,-1,-1,-1,-1,-1,-1],"split_conditions":[-1.8902954E-1,-3.62709E-2,2.3400645E-1,2.858124E-1,-2.5428253E-1,-3.3977485E-1,3.587783E-1,-2.051131E-1,-2.298543E-1,-3.7887257E-1,-2.130385E0,3.6909154E-1,1.0035604E0,-4.3119434E-1,6.035974E0,-1.12659305E-1,5.795913E-1,-9.3528414E-1,-3.8484922E-1,-1.13914944E-1,5.381081E-1,-3.8678598E-1,5.6149878E-2,1.5608846E0,-3.7982923E-1,-3.5927242E-1,-2.5333738E-1,1.0910852E1,-5.611028E-2,-2.051621E-1,-2.7142215E-1,-1.6785971E0,5.5996686E-1,-3.744963E-1,-1.282855E0,5.7322085E-2,-5.611028E-2,1.5941467E0,-3.7735274E-1,-2.9397416E-1,-3.4497496E-1,6.705623E0,-4.6514362E-2,-3.8886103E-1,-3.426474E-1,-3.2898912E-1,4.1395514E-3,-3.296298E-1,5.71881E-2,-3.844645E-1,-1.9915953E-2,-1.7565541E-1,4.8071142E-2,3.6984153E-2,-3.7194148E-1,4.9087044E-2,-3.2688257E-1,5.7107646E-2,-8.082594E-3],"split_indices":[3,882,3,1,2072,1,3,46,0,0,2068,103,2064,1,1916,2,2092,3,0,0,2067,0,0,903,0,0,901,25,0,1241,2010,2092,2069,0,1116,0,0,2164,0,751,0,2295,0,0,0,0,0,0,0,0,0,0,0,0,0,0,0,0,0],"split_type":[0,0,0,0,0,0,0,0,0,0,0,0,0,0,0,0,0,0,0,0,0,0,0,0,0,0,0,0,0,0,0,0,0,0,0,0,0,0,0,0,0,0,0,0,0,0,0,0,0,0,0,0,0,0,0,0,0,0,0],"sum_hessian":[2.2103667E5,7.1203936E3,2.1391628E5,5.050988E3,2.0694055E3,3.0449612E3,2.1087131E5,4.436762E3,6.1422577E2,3.7527122E1,2.0318785E3,2.2303798E2,2.821923E3,2.1727083E3,2.0869861E5,3.995871E3,4.4089102E2,5.2080005E2,9.342573E1,8.67583E0,2.0232026E3,1.7721764E2,4.5820343E1,2.7803633E3,4.1559887E1,1.2098296E1,2.1606099E3,2.0869161E5,6.9955106E0,3.723239E3,2.7263214E2,3.4931946E2,9.157156E1,2.5876911E1,4.9492313E2,2.0162072E3,6.9955106E0,2.747877E3,3.2486164E1,2.1527683E3,7.8414884E0,2.0868484E5,6.771468E0,3.6177266E3,1.0551239E2,1.5703053E2,1.156016E2,4.3850506E1,3.0546896E2,8.53602E1,6.211362E0,1.1476361E1,4.8344678E2,2.726033E3,2.1844145E1,2.1475034E3,5.2649994E0,2.0867886E5,5.9873195E0],"tree_param":{"num_deleted":"0","num_feature":"2703","num_nodes":"59","size_leaf_vector":"1"}},{"base_weights":[9.422222E-1,-3.2018015E0,1.1171013E0,-4.5253706E0,9.4098663E-1,4.4163976E-2,1.1310619E0,-4.9939466E0,2.4694641E-1,-2.7756843E-1,1.1121134E0,-4.7749753E0,4.49085E-1,8.8045365E-1,1.1336738E0,-5.2940903E0,1.3310167E-1,8.8255876E-1,-2.8023693E-1,-1.1680933E-1,1.1304924E0,-2.787613E-1,5.280872E-2,5.604124E-1,-2.925708E-1,-2.6838952E-1,9.270991E-1,1.1337334E0,-3.3504896E-2,-5.559083E0,-2.3992512E0,-2.7760372E-1,9.963878E-1,-2.4101655E-1,9.531049E-1,5.6864966E-2,-3.7634782E-2,6.6098356E-1,-2.8732735E-1,9.609999E-1,-2.7626207E-1,1.1338111E0,2.4277787E-1,-2.812135E-1,-9.159108E-2,-2.801839E-1,3.1122787E-2,-9.75299E-2,5.523252E-2,5.0099082E-2,-9.275688E-2,3.6730554E-2,-3.4856185E-1,4.9054712E-2,-2.5275669E-1,5.6692775E-2,-1.3673693E-2,-4.7142595E-2,5.2823253E-2],"categories":[],"categories_nodes":[],"categories_segments":[],"categories_sizes":[],"default_left":[0,0,0,0,0,0,0,0,0,0,0,0,0,0,0,0,0,0,0,0,0,0,0,0,0,0,0,0,0,0,0,0,0,0,0,0,0,0,0,0,0,0,0,0,0,0,0,0,0,0,0,0,0,0,0,0,0,0,0],"id":1,"left_children":[1,3,5,7,9,11,13,15,17,-1,19,21,23,25,27,29,31,33,-1,-1,35,-1,-1,37,-1,-1,39,41,-1,43,45,-1,47,-1,49,-1,-1,51,-1,53,-1,55,57,-1,-1,-1,-1,-1,-1,-1,-1,-1,-1,-1,-1,-1,-1,-1,-1],"loss_changes":[1.5523686E5,4.756421E4,3.0785625E3,1.470125E4,2.340394E3,5.1556313E3,1.3178125E2,9.212234E3,2.1945217E3,0E0,1.3242798E2,9.6150977E2,1.7127539E3,6.162179E2,2.2328125E1,4.3246562E3,1.6350769E3,2.185766E2,0E0,0E0,2.697583E1,0E0,0E0,1.5234285E3,0E0,0E0,4.608435E2,1.3625E1,0E0,1.24825E3,4.6125303E3,0E0,9.439151E1,0E0,7.408539E1,0E0,0E0,1.3307738E3,0E0,2.5550452E2,0E0,1.2859375E1,1.9119394E1,0E0,0E0,0E0,0E0,0E0,0E0,0E0,0E0,0E0,0E0,0E0,0E0,0E0,0E0,0E0,0E0],"parents":[2147483647,0,0,1,1,2,2,3,3,4,4,5,5,6,6,7,7,8,8,10,10,11,11,12,12,13,13,14,14,15,15,16,16,17,17,20,20,23,23,26,26,27,27,29,29,30,30,32,32,34,34,37,37,39,39,41,41,42,42],"right_children":[2,4,6,8,10,12,14,16,18,-1,20,22,24,26,28,30,32,34,-1,-1,36,-1,-1,38,-1,-1,40,42,-1,44,46,-1,48,-1,50,-1,-1,52,-1,54,-1,56,58,-1,-1,-1,-1,-1,-1,-1,-1,-1,-1,-1,-1,-1,-1,-1,-1],"split_conditions":[-1.3674423E-1,-3.62709E-2,2.3400645E-1,4.9484766E-1,-2.5428253E-1,-3.3977485E-1,3.587783E-1,4.1207697E-2,-2.298543E-1,-2.7756843E-1,-2.130385E0,3.1264374E-1,2.4498367E0,-4.3119434E-1,1.389267E1,-2.1953507E-1,-4.607105E-1,-9.4479054E-1,-2.8023693E-1,-1.1680933E-1,5.381081E-1,-2.787613E-1,5.280872E-2,1.0888361E0,-2.925708E-1,-2.6838952E-1,-1.21757805E-1,6.061903E0,-3.3504896E-2,-4.7401983E-2,-2.9330033E-1,-2.7760372E-1,3.7454814E-1,-2.4101655E-1,-3.05332E-1,5.6864966E-2,-3.7634782E-2,1.7177225E0,-2.8732735E-1,9.5180815E-1,-2.7626207E-1,6.705623E0,-4.0935868E-1,-2.812135E-1,-9.159108E-2,-2.801839E-1,3.1122787E-2,-9.75299E-2,5.523252E-2,5.0099082E-2,-9.275688E-2,3.6730554E-2,-3.4856185E-1,4.9054712E-2,-2.5275669E-1,5.6692775E-2,-1.3673693E-2,-4.7142595E-2,5.2823253E-2],"split_indices":[3,882,3,2,2072,1,3,175,0,0,2068,176,1397,1,99,2123,2294,3,0,0,2067,0,0,582,0,0,582,1916,0,1203,712,0,1183,0,385,0,0,1117,0,751,0,2295,561,0,0,0,0,0,0,0,0,0,0,0,0,0,0,0,0],"split_type":[0,0,0,0,0,0,0,0,0,0,0,0,0,0,0,0,0,0,0,0,0,0,0,0,0,0,0,0,0,0,0,0,0,0,0,0,0,0,0,0,0,0,0,0,0,0,0,0,0,0,0,0,0,0,0,0,0,0,0],"sum_hessian":[2.142015E5,8.672654E3,2.0552884E5,6.572675E3,2.0999795E3,2.6399573E3,2.0288889E5,5.984985E3,5.8768994E2,5.312272E1,2.0468569E3,2.0378865E2,2.4361687E3,2.0962266E3,2.0079267E5,5.6539624E3,3.3102258E2,5.3087524E2,5.68147E1,1.0183152E1,2.0366737E3,1.7923485E2,2.45538E1,2.3947651E3,4.140351E1,1.4687841E1,2.0815386E3,2.007864E5,6.2518873E0,5.178961E3,4.7500113E2,4.292281E1,2.880998E2,5.6641154E0,5.252111E2,2.0297333E3,6.94043E0,2.3580586E3,3.6706562E1,2.0715059E3,1.0032701E1,2.0076862E5,1.7785849E1,5.089443E3,8.951825E1,2.3011589E2,2.4488525E2,9.605795E0,2.78494E2,5.168585E2,8.3525915E0,2.336423E3,2.1635563E1,2.065444E3,6.061798E0,2.0076248E5,6.1360326E0,7.173926E0,1.0611922E1],"tree_param":{"num_deleted":"0","num_feature":"2703","num_nodes":"59","size_leaf_vector":"1"}},{"base_weights":[9.3010986E-1,-2.7396343E0,1.1102268E0,-3.6364024E0,9.2447954E-1,1.2205397E-1,1.1227611E0,-3.9914255E0,2.7940813E-1,-2.2324131E-1,1.1069542E0,4.4889385E-1,-2.460656E0,8.555037E-1,1.1256841E0,-4.2763643E0,-6.026239E-1,8.85796E-1,-2.2873557E-1,-1.0678037E-1,1.1236843E0,-2.4799934E-1,5.706742E-1,-4.5780787E0,2.2052774E-1,8.9517415E-1,-2.216508E-1,1.1257411E0,-3.1317826E-2,-4.4622173E0,-2.0747354E0,-2.2418511E-1,5.2611244E-1,-2.521492E-1,9.47838E-1,1.1279414E0,-3.5768976E-3,6.7107785E-1,-2.460767E-1,-2.4779962E-1,-1.2655185E0,-2.6943302E-1,9.643498E-1,-3.153173E-1,9.202467E-1,1.1257874E0,-1.450448E-2,-2.2493124E-1,-9.617479E-2,-2.242304E-1,3.0603727E-2,4.5585647E-2,-2.2744672E-1,5.0130796E-2,-9.559236E-2,9.0886345E-3,5.6532916E-2,3.7634898E-2,-2.5213617E-1,-2.1657906E-1,5.150499E-2,5.2958913E-2,-2.4939E-2,4.746801E-2,-2.1692179E-1,5.6292143E-2,1.0769803E-2],"categories":[],"categories_nodes":[],"categories_segments":[],"categories_sizes":[],"default_left":[0,0,0,0,0,0,0,0,0,0,0,0,0,0,0,0,0,0,0,0,0,0,0,0,0,0,0,0,0,0,0,0,0,0,0,0,0,0,0,0,0,0,0,0,0,0,0,0,0,0,0,0,0,0,0,0,0,0,0,0,0,0,0,0,0,0,0],"id":2,"left_children":[1,3,5,7,9,11,13,15,17,-1,19,21,23,25,27,29,31,33,-1,-1,35,-1,37,39,41,43,-1,45,-1,47,49,-1,51,-1,53,55,-1,57,-1,-1,59,-1,61,-1,63,65,-1,-1,-1,-1,-1,-1,-1,-1,-1,-1,-1,-1,-1,-1,-1,-1,-1,-1,-1,-1,-1],"loss_changes":[1.3625938E5,3.1694508E4,2.4337344E3,1.0773172E4,1.8706268E3,2.0796792E3,1.5060938E2,6.8575312E3,1.9027466E3,0E0,1.01989746E2,1.4431453E3,1.5722424E3,4.4524548E2,1.9875E1,2.6722188E3,2.4213694E3,2.1601053E2,0E0,0E0,9.376953E0,0E0,1.1830303E3,1.8737207E2,5.1870496E2,3.8290723E2,0E0,1.2890625E1,0E0,5.4983594E2,3.3179385E3,0E0,8.4304504E2,0E0,9.107303E1,4.4748535E0,0E0,9.8401154E2,0E0,0E0,1.25404495E2,0E0,1.5723167E1,0E0,3.2289197E2,9.4375E0,0E0,0E0,0E0,0E0,0E0,0E0,0E0,0E0,0E0,0E0,0E0,0E0,0E0,0E0,0E0,0E0,0E0,0E0,0E0,0E0,0E0],"parents":[2147483647,0,0,1,1,2,2,3,3,4,4,5,5,6,6,7,7,8,8,10,10,11,11,12,12,13,13,14,14,15,15,16,16,17,17,20,20,22,22,23,23,24,24,25,25,27,27,29,29,30,30,32,32,34,34,35,35,37,37,40,40,42,42,44,44,45,45],"right_children":[2,4,6,8,10,12,14,16,18,-1,20,22,24,26,28,30,32,34,-1,-1,36,-1,38,40,42,44,-1,46,-1,48,50,-1,52,-1,54,56,-1,58,-1,-1,60,-1,62,-1,64,66,-1,-1,-1,-1,-1,-1,-1,-1,-1,-1,-1,-1,-1,-1,-1,-1,-1,-1,-1,-1,-1],"split_conditions":[-1.09413244E-1,-3.62709E-2,2.3400645E-1,4.9484766E-1,-2.5428253E-1,1.4373875E-1,3.587783E-1,-1.1830192E-1,-2.298543E-1,-2.2324131E-1,4.1481405E-1,-1.3559527E0,5.187716E-1,-1.21757805E-1,8.971173E0,-2.112997E-1,-7.808047E-1,-1.6469693E-1,-2.2873557E-1,-1.0678037E-1,5.381081E-1,-2.4799934E-1,-2.755351E-1,-2.1953507E-1,-6.639221E-1,-1.0151091E0,-2.216508E-1,1.4809454E1,-3.1317826E-2,-1.3674423E-1,-2.9330033E-1,-2.2418511E-1,-4.3878004E-1,-2.521492E-1,-4.2303902E-1,1.558103E-1,-3.5768976E-3,-2.9588005E-1,-2.460767E-1,-2.4779962E-1,-4.3744338E-1,-2.6943302E-1,-5.4690784E-1,-3.153173E-1,9.5180815E-1,6.426787E0,-1.450448E-2,-2.2493124E-1,-9.617479E-2,-2.242304E-1,3.0603727E-2,4.5585647E-2,-2.2744672E-1,5.0130796E-2,-9.559236E-2,9.0886345E-3,5.6532916E-2,3.7634898E-2,-2.5213617E-1,-2.1657906E-1,5.150499E-2,5.2958913E-2,-2.4939E-2,4.746801E-2,-2.1692179E-1,5.6292143E-2,1.0769803E-2],"split_indices":[3,882,3,2,2072,2063,3,350,0,0,2116,1029,2,582,2297,2147,3,1029,0,0,2067,0,481,2123,2127,2060,0,99,0,3,712,0,2060,0,1826,1030,0,628,0,0,2076,0,0,0,751,1156,0,0,0,0,0,0,0,0,0,0,0,0,0,0,0,0,0,0,0,0,0],"split_type":[0,0,0,0,0,0,0,0,0,0,0,0,0,0,0,0,0,0,0,0,0,0,0,0,0,0,0,0,0,0,0,0,0,0,0,0,0,0,0,0,0,0,0,0,0,0,0,0,0,0,0,0,0,0,0,0,0,0,0,0,0,0,0,0,0,0,0],"sum_hessian":[2.0614102E5,9.643702E3,1.9649731E5,7.747548E3,1.8961548E3,2.4613794E3,1.9403594E5,7.103497E3,6.44051E2,6.133011E1,1.8348246E3,2.1856174E3,2.7576196E2,2.1023442E3,1.919336E5,6.5523013E3,5.511955E2,5.7325604E2,7.079496E1,8.768097E0,1.8260565E3,4.7250595E1,2.138367E3,1.5368452E2,1.2207744E2,2.0875159E3,1.4828212E1,1.919277E5,5.8909326E0,6.041292E3,5.1100937E2,1.2351743E2,4.276781E2,5.105313E0,5.6815076E2,1.8196317E3,6.424852E0,2.100839E3,3.7527847E1,1.3750154E2,1.6182976E1,1.3561927E1,1.0851552E2,6.373423E0,2.0811426E3,1.9192164E5,6.062776E0,5.955118E3,8.617352E1,2.6903528E2,2.419741E2,3.9824026E2,2.9437824E1,5.5810944E2,1.0041328E1,5.4043527E0,1.8142273E3,2.072108E3,2.873124E1,6.549061E0,9.633916E0,1.0216977E2,6.345745E0,2.070499E3,1.064338E1,1.9190972E5,1.1914246E1],"tree_param":{"num_deleted":"0","num_feature":"2703","num_nodes":"67","size_leaf_vector":"1"}},{"base_weights":[9.197952E-1,-1.8861206E0,1.0448612E0,-2.4471982E0,6.9227576E-1,1.9583774E-1,1.0824881E0,-3.1486845E0,-6.6797405E-1,-3.4894505E0,9.501998E-1,-1.7174474E0,4.636722E-1,1.0841818E0,-3.338956E0,-3.507317E0,-5.1700604E-1,-1.8957321E-1,-2.6828668E-1,-1.8670969E-1,-3.9143685E-2,-1.8302995E-1,1.0608459E0,-2.6599545E0,4.8021904E-1,-3.1876895E0,5.791938E-1,1.0848892E0,-2.1964554E-1,-2.0592861E-1,-9.1598266E-1,-3.5837135E0,7.7909386E-1,-3.5861225E0,7.3246576E-2,1.7385049E-1,-3.1495283E0,-6.8301654E-1,1.0795034E0,-2.988304E0,-1.20074265E-1,-2.8700533E0,7.98623E-1,-3.4712157E0,5.232249E-2,6.3693964E-1,-3.1624289E0,8.9953923E-1,1.1000795E0,-1.8216406E-1,4.4567116E-2,-1.8162726E-1,2.7916713E-3,-6.4443104E-2,5.400787E-2,-1.9061683E-1,-1.4149835E-3,-5.9256252E-2,3.7181567E-2,1.8446933E-2,-1.8786336E-1,5.4481663E-2,-1.9069353E-1,-1.5941203E-1,5.0568897E-2,5.413946E-2,1.05136195E-2,-1.6465347E-1,-4.9326816E-3,-1.8386541E-1,4.9442504E-2,-1.8459636E-1,1.6717061E-2,4.441664E-2,-1.5936904E-1,-1.8969119E-1,4.9790028E-3,3.3886805E-2,-1.8712552E-1,-1.9010895E-1,-1.3365787E-2,4.6064228E-2,-1.0276373E-1,5.5376854E-2,5.023445E-2],"categories":[],"categories_nodes":[],"categories_segments":[],"categories_sizes":[],"default_left":[0,0,0,0,0,0,0,0,0,0,0,0,0,0,0,0,0,0,0,0,0,0,0,0,0,0,0,0,0,0,0,0,0,0,0,0,0,0,0,0,0,0,0,0,0,0,0,0,0,0,0,0,0,0,0,0,0,0,0,0,0,0,0,0,0,0,0,0,0,0,0,0,0,0,0,0,0,0,0,0,0,0,0,0,0],"id":3,"left_children":[1,3,5,7,9,11,13,15,17,19,21,23,25,27,29,31,33,-1,35,-1,-1,-1,37,39,41,43,45,47,-1,-1,49,51,53,55,57,59,61,63,65,67,69,71,73,75,-1,77,79,81,83,-1,-1,-1,-1,-1,-1,-1,-1,-1,-1,-1,-1,-1,-1,-1,-1,-1,-1,-1,-1,-1,-1,-1,-1,-1,-1,-1,-1,-1,-1,-1,-1,-1,-1,-1,-1],"loss_changes":[6.9771266E4,1.227517E4,6.080203E3,8.694535E3,1.6394978E3,4.1405283E3,1.3684688E3,4.7146367E3,2.4603972E3,5.5597656E1,7.332433E2,2.05647E3,2.9913047E3,7.10625E2,1.2852411E2,1.4429141E3,1.088106E3,0E0,2.2286438E3,0E0,0E0,0E0,4.618799E1,5.7888184E2,3.2087994E2,2.647412E2,1.486519E3,5.1189062E2,0E0,0E0,9.36228E1,7.681328E2,4.9848026E1,7.78645E1,4.2657727E2,1.1650173E3,6.5961206E2,6.859461E1,3.7208252E0,5.4129004E2,3.2139694E2,7.00715E1,1.00636826E2,2.3547437E2,0E0,1.2115879E3,1.927074E2,8.8883496E2,1.1865625E2,0E0,0E0,0E0,0E0,0E0,0E0,0E0,0E0,0E0,0E0,0E0,0E0,0E0,0E0,0E0,0E0,0E0,0E0,0E0,0E0,0E0,0E0,0E0,0E0,0E0,0E0,0E0,0E0,0E0,0E0,0E0,0E0,0E0,0E0,0E0,0E0],"parents":[2147483647,0,0,1,1,2,2,3,3,4,4,5,5,6,6,7,7,8,8,9,9,10,10,11,11,12,12,13,13,14,14,15,15,16,16,18,18,22,22,23,23,24,24,25,25,26,26,27,27,30,30,31,31,32,32,33,33,34,34,35,35,36,36,37,37,38,38,39,39,40,40,41,41,42,42,43,43,45,45,46,46,47,47,48,48],"right_children":[2,4,6,8,10,12,14,16,18,20,22,24,26,28,30,32,34,-1,36,-1,-1,-1,38,40,42,44,46,48,-1,-1,50,52,54,56,58,60,62,64,66,68,70,72,74,76,-1,78,80,82,84,-1,-1,-1,-1,-1,-1,-1,-1,-1,-1,-1,-1,-1,-1,-1,-1,-1,-1,-1,-1,-1,-1,-1,-1,-1,-1,-1,-1,-1,-1,-1,-1,-1,-1,-1,-1],"split_conditions":[-6.064149E-1,-3.254107E-1,-2.750194E-1,-4.0778401E-1,-3.2841668E-1,-7.0817244E-1,6.061903E0,-2.7071047E-1,-6.078038E-1,-1.4936078E-1,-1.0825579E0,-1.5830716E-1,-8.537748E-1,1.1561263E1,-3.506409E-1,-3.9407928E-2,-1.1231887E0,-1.8957321E-1,1.3333108E-1,-1.8670969E-1,-3.9143685E-2,-1.8302995E-1,-1.5427709E0,-1.9026466E-1,-4.5385334E-1,-2.5797406E-2,3.7972722E0,7.7622803E-3,-2.1964554E-1,-2.0592861E-1,5.789168E-1,1.3776245E1,1.4728565E0,-1.6818948E-2,-5.362151E-1,-2.4155803E-1,2.345726E0,-2.230243E-1,1.4476657E0,6.3185537E-1,-2.112997E-1,-2.0438534E-1,-1.1995605E-1,7.33237E-1,5.232249E-2,2.7077475E0,-4.077158E-1,3.0477755E0,2.3288887E0,-1.8216406E-1,4.4567116E-2,-1.8162726E-1,2.7916713E-3,-6.4443104E-2,5.400787E-2,-1.9061683E-1,-1.4149835E-3,-5.9256252E-2,3.7181567E-2,1.8446933E-2,-1.8786336E-1,5.4481663E-2,-1.9069353E-1,-1.5941203E-1,5.0568897E-2,5.413946E-2,1.05136195E-2,-1.6465347E-1,-4.9326816E-3,-1.8386541E-1,4.9442504E-2,-1.8459636E-1,1.6717061E-2,4.441664E-2,-1.5936904E-1,-1.8969119E-1,4.9790028E-3,3.3886805E-2,-1.8712552E-1,-1.9010895E-1,-1.3365787E-2,4.6064228E-2,-1.0276373E-1,5.5376854E-2,5.023445E-2],"split_indices":[1,1981,1,460,2284,2063,1916,1257,2060,2158,1,1989,2066,1604,794,162,1,0,2060,0,0,0,432,942,1031,1105,2099,1,0,0,1,2296,1138,489,2078,679,460,410,151,2296,2147,2113,1030,570,0,1413,1117,1963,2294,0,0,0,0,0,0,0,0,0,0,0,0,0,0,0,0,0,0,0,0,0,0,0,0,0,0,0,0,0,0,0,0,0,0,0,0],"split_type":[0,0,0,0,0,0,0,0,0,0,0,0,0,0,0,0,0,0,0,0,0,0,0,0,0,0,0,0,0,0,0,0,0,0,0,0,0,0,0,0,0,0,0,0,0,0,0,0,0,0,0,0,0,0,0,0,0,0,0,0,0,0,0,0,0,0,0,0,0,0,0,0,0,0,0,0,0,0,0,0,0,0,0,0,0],"sum_hessian":[1.9881475E5,8.482889E3,1.9033188E5,6.9668926E3,1.5159955E3,8.0774126E3,1.8225445E5,4.996268E3,1.9706248E3,8.734475E1,1.4286506E3,9.9121564E2,7.0861973E3,1.8218542E5,6.903572E1,4.396765E3,5.9950287E2,2.2259511E2,1.7480297E3,7.975335E1,7.591402E0,3.272825E1,1.3959225E3,6.9356006E2,2.9765555E2,2.1650168E2,6.8696953E3,1.821627E5,2.2724634E1,5.1700706E1,1.7335016E1,4.319935E3,7.682994E1,9.588053E1,5.0362234E2,1.5162892E3,2.3174052E2,1.4399905E1,1.3815225E3,6.1400635E2,7.955375E1,2.5137966E1,2.7251758E2,2.0308301E2,1.3418659E1,6.7661016E3,1.0359405E2,1.3802839E4,1.6835986E5,6.50419E0,1.0830827E1,4.262744E3,5.7191048E1,9.346862E0,6.748308E1,9.008142E1,5.7991076E0,1.7477895E2,3.2884338E2,1.4454619E3,7.082726E1,3.1310205E1,2.0043031E2,5.454132E0,8.945773E0,1.3760752E3,5.447339E0,5.5530035E2,5.8705986E1,1.8355722E1,6.1198025E1,1.9885517E1,5.2524486E0,2.6727927E2,5.2383027E0,1.8619824E2,1.6884771E1,6.704491E3,6.1609966E1,8.458868E1,1.900537E1,1.3702686E4,1.00153694E2,1.561423E5,1.2217553E4],"tree_param":{"num_deleted":"0","num_feature":"2703","num_nodes":"85","size_leaf_vector":"1"}},{"base_weights":[9.093993E-1,-2.2311199E0,1.0952927E0,-2.8868299E0,9.041756E-1,1.1305655E-1,1.1086557E0,-3.118754E0,2.3238824E-1,-1.7561297E-1,1.0893034E0,4.27195E-1,-2.1410499E0,8.4583354E-1,1.1115425E0,-3.250129E0,1.452256E-1,8.440824E-1,-1.9841374E-1,-9.614679E-2,1.107905E0,5.522812E-1,-1.9717185E-1,-3.7398603E0,3.0687781E-2,8.871137E-1,-1.8814659E-1,1.1116039E0,-3.1705435E-2,-3.3695383E0,-1.7089422E0,-1.7383395E-1,9.5566493E-1,9.168926E-1,-2.5029147E-1,5.580712E-2,-3.8589723E-2,-1.9909227E-1,6.7994577E-1,-2.008454E-1,-1.1527208E0,8.351036E-1,-2.2008751E-1,-2.4452904E-1,9.131157E-1,1.1116488E0,-1.9110529E-2,-1.7058784E-1,-4.6317287E-2,-1.7125621E-1,2.9193996E-2,-1.7891793E-1,5.43213E-2,-1.9345789E-1,4.8776697E-2,3.7908163E-2,-1.8990335E-1,-1.679347E-1,5.0468683E-2,-7.629496E-2,5.135725E-2,4.6709534E-2,-2.932104E-1,5.5586495E-2,1.242504E-2],"categories":[],"categories_nodes":[],"categories_segments":[],"categories_sizes":[],"default_left":[0,0,0,0,0,0,0,0,0,0,0,0,0,0,0,0,0,0,0,0,0,0,0,0,0,0,0,0,0,0,0,0,0,0,0,0,0,0,0,0,0,0,0,0,0,0,0,0,0,0,0,0,0,0,0,0,0,0,0,0,0,0,0,0,0],"id":4,"left_children":[1,3,5,7,9,11,13,15,17,-1,19,21,23,25,27,29,31,33,-1,-1,35,37,-1,39,41,43,-1,45,-1,47,49,-1,51,53,-1,-1,-1,-1,55,-1,57,59,-1,-1,61,63,-1,-1,-1,-1,-1,-1,-1,-1,-1,-1,-1,-1,-1,-1,-1,-1,-1,-1,-1],"loss_changes":[1.1227055E5,2.2097004E4,2.3829531E3,6.430867E3,1.5242711E3,1.7272803E3,1.349375E2,3.5481484E3,1.5863809E3,0E0,1.0218115E2,1.1724801E3,1.0361354E3,3.7437207E2,1.971875E1,1.4579141E3,9.457903E2,2.339953E2,0E0,0E0,2.8349121E1,1.2078451E3,0E0,1.1855591E2,4.5831964E2,2.9497375E2,0E0,1.2296875E1,0E0,7.581172E2,2.26037E3,0E0,1.5990436E2,1.5331577E2,0E0,0E0,0E0,0E0,7.1243414E2,0E0,8.936879E1,5.0882545E1,0E0,0E0,2.8056067E2,1.2125E1,0E0,0E0,0E0,0E0,0E0,0E0,0E0,0E0,0E0,0E0,0E0,0E0,0E0,0E0,0E0,0E0,0E0,0E0,0E0],"parents":[2147483647,0,0,1,1,2,2,3,3,4,4,5,5,6,6,7,7,8,8,10,10,11,11,12,12,13,13,14,14,15,15,16,16,17,17,20,20,21,21,23,23,24,24,25,25,27,27,29,29,30,30,32,32,33,33,38,38,40,40,41,41,44,44,45,45],"right_children":[2,4,6,8,10,12,14,16,18,-1,20,22,24,26,28,30,32,34,-1,-1,36,38,-1,40,42,44,-1,46,-1,48,50,-1,52,54,-1,-1,-1,-1,56,-1,58,60,-1,-1,62,64,-1,-1,-1,-1,-1,-1,-1,-1,-1,-1,-1,-1,-1,-1,-1,-1,-1,-1,-1],"split_conditions":[-1.09413244E-1,-3.62709E-2,2.3400645E-1,4.9484766E-1,-2.5428253E-1,1.4373875E-1,3.587783E-1,4.1207697E-2,-2.298543E-1,-1.7561297E-1,-2.130385E0,-3.4484753E-1,4.3847403E-1,-6.463423E-2,1.389267E1,-2.1953507E-1,-4.607105E-1,-3.2946672E-2,-1.9841374E-1,-9.614679E-2,5.381081E-1,-1.3559527E0,-1.9717185E-1,-2.112997E-1,2.2111219E-1,-1.0151091E0,-1.8814659E-1,3.7141487E1,-3.1705435E-2,-4.7401983E-2,-2.9330033E-1,-1.7383395E-1,-7.808047E-1,-9.626151E-1,-2.5029147E-1,5.580712E-2,-3.8589723E-2,-1.9909227E-1,2.5711787E0,-2.008454E-1,-4.3744338E-1,-5.93302E-1,-2.2008751E-1,-2.4452904E-1,2.893859E0,6.061903E0,-1.9110529E-2,-1.7058784E-1,-4.6317287E-2,-1.7125621E-1,2.9193996E-2,-1.7891793E-1,5.43213E-2,-1.9345789E-1,4.8776697E-2,3.7908163E-2,-1.8990335E-1,-1.679347E-1,5.0468683E-2,-7.629496E-2,5.135725E-2,4.6709534E-2,-2.932104E-1,5.5586495E-2,1.242504E-2],"split_indices":[3,882,3,2,2072,2063,3,175,0,0,2068,225,2,901,99,2123,2294,1692,0,0,2067,1029,0,2147,2064,2060,0,661,0,1203,712,0,3,3,0,0,0,0,2077,0,2076,2135,0,0,2274,1916,0,0,0,0,0,0,0,0,0,0,0,0,0,0,0,0,0,0,0],"split_type":[0,0,0,0,0,0,0,0,0,0,0,0,0,0,0,0,0,0,0,0,0,0,0,0,0,0,0,0,0,0,0,0,0,0,0,0,0,0,0,0,0,0,0,0,0,0,0,0,0,0,0,0,0,0,0,0,0,0,0,0,0,0,0,0,0],"sum_hessian":[1.9230416E5,1.0746119E4,1.8155803E5,8.887486E3,1.858633E3,2.4370198E3,1.7912102E5,8.272405E3,6.1508026E2,7.4052574E1,1.7845806E3,2.1396438E3,2.9737613E2,1.9492402E3,1.7717178E5,7.9523286E3,3.2007684E2,5.3759546E2,7.748478E1,1.0324455E1,1.7742561E3,2.080961E3,5.8682846E1,1.7086504E2,1.265111E2,1.9327366E3,1.6503763E1,1.771659E5,5.861486E0,7.3793955E3,5.729333E2,5.7923443E1,2.621534E2,5.318195E2,5.7759547E0,1.7669192E3,7.336838E0,5.6161E1,2.0247999E3,1.5383836E2,1.7026672E1,1.07765076E2,1.8746027E1,7.820946E0,1.9249155E3,1.7716084E5,5.0740767E0,7.2536553E3,1.2573997E2,3.273885E2,2.4554482E2,6.609494E0,2.555439E2,5.650737E0,5.2616876E2,1.9908563E3,3.394362E1,8.153875E0,8.872798E0,7.583694E0,1.0018138E2,1.9198079E3,5.1077366E0,1.771439E5,1.6930323E1],"tree_param":{"num_deleted":"0","num_feature":"2703","num_nodes":"65","size_leaf_vector":"1"}},{"base_weights":[8.9894843E-1,-2.09117E0,1.0865281E0,-2.646196E0,8.819436E-1,6.393859E-2,1.1018238E0,-2.8638659E0,-7.8347254E-1,-1.5308334E-1,1.0908468E0,-2.9745412E0,4.2308083E-1,8.368675E-1,1.1048517E0,-2.9424417E0,5.5289127E-2,6.6603474E-2,-1.7260599E-1,-7.53274E-2,1.1050313E0,-1.6646226E-1,5.1350754E-2,6.041986E-1,-2.8393579E0,-1.824987E-1,8.8088024E-1,1.1049212E0,-3.1704362E-2,-3.036038E0,-1.6624627E0,-1.7681824E-1,2.935526E-1,5.5605073E-2,-2.3242218E-2,6.808471E-1,-4.593977E0,-3.7050943E0,4.7245506E-2,9.2052233E-1,-2.9291089E0,1.1050124E0,-1.4326984E-1,-1.5268245E-1,-8.170647E-2,-1.4242758E-1,2.5176829E-2,-1.6412868E-1,2.3702472E-2,-2.0301615E-1,3.771349E-2,-2.4569893E-1,-1.4295988E-1,-2.0111106E-1,-1.618735E-1,4.698659E-2,-2.3794854E-1,-2.9383606E-1,4.4763546E-2,5.5252668E-2,-9.9631E-3,-4.9502835E-2,4.8384175E-2],"categories":[],"categories_nodes":[],"categories_segments":[],"categories_sizes":[],"default_left":[0,0,0,0,0,0,0,0,0,0,0,0,0,0,0,0,0,0,0,0,0,0,0,0,0,0,0,0,0,0,0,0,0,0,0,0,0,0,0,0,0,0,0,0,0,0,0,0,0,0,0,0,0,0,0,0,0,0,0,0,0,0,0],"id":5,"left_children":[1,3,5,7,9,11,13,15,17,-1,19,21,23,25,27,29,-1,31,-1,-1,33,-1,-1,35,37,-1,39,41,-1,43,45,-1,47,-1,-1,49,51,53,-1,55,57,59,61,-1,-1,-1,-1,-1,-1,-1,-1,-1,-1,-1,-1,-1,-1,-1,-1,-1,-1,-1,-1],"loss_changes":[1.033287E5,1.7947555E4,2.7112969E3,3.7135234E3,1.413346E3,2.7902068E3,1.3609375E2,2.562586E3,2.1785754E3,0E0,6.1576416E1,3.87042E2,1.3527566E3,3.851057E2,2.1109375E1,9.588828E2,0E0,5.9732806E2,0E0,0E0,1.8474365E1,0E0,0E0,8.6654407E2,3.9806708E2,0E0,2.920597E2,1.9390625E1,0E0,1.8010156E2,1.4156497E3,0E0,4.4496683E2,0E0,0E0,7.4676904E2,3.5022583E0,1.5430908E0,0E0,2.1142297E2,2.303554E2,9.21875E0,1.34003725E1,0E0,0E0,0E0,0E0,0E0,0E0,0E0,0E0,0E0,0E0,0E0,0E0,0E0,0E0,0E0,0E0,0E0,0E0,0E0,0E0],"parents":[2147483647,0,0,1,1,2,2,3,3,4,4,5,5,6,6,7,7,8,8,10,10,11,11,12,12,13,13,14,14,15,15,17,17,20,20,23,23,24,24,26,26,27,27,29,29,30,30,32,32,35,35,36,36,37,37,39,39,40,40,41,41,42,42],"right_children":[2,4,6,8,10,12,14,16,18,-1,20,22,24,26,28,30,-1,32,-1,-1,34,-1,-1,36,38,-1,40,42,-1,44,46,-1,48,-1,-1,50,52,54,-1,56,58,60,62,-1,-1,-1,-1,-1,-1,-1,-1,-1,-1,-1,-1,-1,-1,-1,-1,-1,-1,-1,-1],"split_conditions":[-1.3674423E-1,-6.748882E-2,2.3400645E-1,-3.722827E-2,-2.5428253E-1,-3.3977485E-1,3.587783E-1,1.7741526E0,4.9139123E-2,-1.5308334E-1,8.87114E-1,3.1264374E-1,2.2111219E-1,-4.3119434E-1,1.4809454E1,-2.112997E-1,5.5289127E-2,-9.067648E-1,-1.7260599E-1,-7.53274E-2,2.474316E0,-1.6646226E-1,5.1350754E-2,1.5864893E0,-4.7051627E-2,-1.824987E-1,2.5499413E0,6.061903E0,-3.1704362E-2,8.661529E-2,-2.9330033E-1,-1.7681824E-1,-3.2961714E-1,5.5605073E-2,-2.3242218E-2,-1.5572454E0,-2.1906266E-1,-3.7832618E-1,4.7245506E-2,1.2502112E0,8.7281984E-1,8.971173E0,1.1058964E0,-1.5268245E-1,-8.170647E-2,-1.4242758E-1,2.5176829E-2,-1.6412868E-1,2.3702472E-2,-2.0301615E-1,3.771349E-2,-2.4569893E-1,-1.4295988E-1,-2.0111106E-1,-1.618735E-1,4.698659E-2,-2.3794854E-1,-2.9383606E-1,4.4763546E-2,5.5252668E-2,-9.9631E-3,-4.9502835E-2,4.8384175E-2],"split_indices":[3,417,3,2,2072,1,3,10,0,0,2106,176,2064,1,99,2147,0,3,0,0,2077,0,0,2164,1475,0,2077,1916,0,440,712,0,1,0,0,1029,451,1252,0,1804,1,2297,2,0,0,0,0,0,0,0,0,0,0,0,0,0,0,0,0,0,0,0,0],"split_type":[0,0,0,0,0,0,0,0,0,0,0,0,0,0,0,0,0,0,0,0,0,0,0,0,0,0,0,0,0,0,0,0,0,0,0,0,0,0,0,0,0,0,0,0,0,0,0,0,0,0,0,0,0,0,0,0,0,0,0,0,0,0,0],"sum_hessian":[1.8421925E5,1.0873871E4,1.7334538E5,9.163352E3,1.7105194E3,2.5547454E3,1.7079062E5,8.204115E3,9.5923566E2,8.536523E1,1.6251542E3,2.6927704E2,2.2854683E3,1.9328375E3,1.688578E5,8.0451274E3,1.5898819E2,7.2823676E2,2.3099889E2,8.255349E0,1.6168988E3,2.4750577E2,2.1771273E1,2.1660334E3,1.1943485E2,1.7979717E1,1.9148578E3,1.688514E5,6.38336E0,7.4956494E3,5.4947797E2,4.2288975E1,6.859478E2,1.6099398E3,6.958997E0,2.1354153E3,3.0618254E1,9.721554E1,2.2219318E1,1.8958899E3,1.8967926E1,1.6883919E5,1.2226079E1,7.401493E3,9.415615E1,3.5484933E2,1.9462859E2,3.2132412E1,6.5381537E2,3.1737066E1,2.1036782E3,2.4302692E1,6.3155603E0,5.3400047E1,4.3815487E1,1.8903308E3,5.5590324E0,1.0408786E1,8.55914E0,1.6883405E5,5.1388397E0,6.999652E0,5.226427E0],"tree_param":{"num_deleted":"0","num_feature":"2703","num_nodes":"63","size_leaf_vector":"1"}},{"base_weights":[8.893942E-1,-1.813368E0,1.0858191E0,-2.2811728E0,8.9296234E-1,3.1444594E-1,1.0965765E0,-2.508866E0,-7.624498E-2,-1.3956857E-1,1.0877626E0,5.8199203E-1,-2.244385E0,8.7049574E-1,1.0985093E0,-2.5856826E0,3.9617005E-1,6.5241754E-1,-2.3419807E0,1.1013446E0,-7.037916E-2,7.294961E-1,-2.365494E0,-3.5771728E0,8.5911316E-1,9.105029E-1,-1.7526661E-1,1.0985829E0,-4.327191E-2,-2.6735287E0,-1.3378942E0,-2.3214614E0,1.0916991E0,-1.5382548E-1,8.770947E-1,-3.1105607E0,4.9383856E-2,5.5321295E-2,-8.352461E-3,-2.15883E0,8.50984E-1,4.4542737E-2,-3.2874906E0,-3.9942398E0,3.5705447E-1,-5.2274663E-2,5.3253878E-2,-1.7218028E-1,9.376337E-1,1.0986643E0,3.0235636E-1,-1.3741204E-1,-9.556153E-2,-1.391779E-1,1.6393584E-3,-1.3757177E-1,1.088538E-2,5.5573083E-2,3.0620608E-2,4.8161175E-2,-2.0424949E-1,-1.6215675E-1,4.9869012E-2,-1.5135041E-1,5.2519914E-2,4.505723E-2,-1.5974277E-1,-1.545814E-1,-2.309011E-1,-1.4928831E-1,-2.3459189E-1,-2.8538188E-2,4.9885828E-2,-1.564612E-1,4.8177414E-2,5.493593E-2,9.433669E-3,-3.4616943E-2,4.7744494E-2],"categories":[],"categories_nodes":[],"categories_segments":[],"categories_sizes":[],"default_left":[0,0,0,0,0,0,0,0,0,0,0,0,0,0,0,0,0,0,0,0,0,0,0,0,0,0,0,0,0,0,0,0,0,0,0,0,0,0,0,0,0,0,0,0,0,0,0,0,0,0,0,0,0,0,0,0,0,0,0,0,0,0,0,0,0,0,0,0,0,0,0,0,0,0,0,0,0,0,0],"id":6,"left_children":[1,3,5,7,9,11,13,15,17,-1,19,21,23,25,27,29,31,33,35,37,-1,39,41,43,45,47,-1,49,-1,51,53,55,57,-1,59,61,-1,-1,-1,63,65,-1,67,69,71,-1,-1,-1,73,75,77,-1,-1,-1,-1,-1,-1,-1,-1,-1,-1,-1,-1,-1,-1,-1,-1,-1,-1,-1,-1,-1,-1,-1,-1,-1,-1,-1,-1],"loss_changes":[9.396384E4,1.5183957E4,1.3687969E3,5.1330664E3,1.2719895E3,1.5558959E3,7.015625E1,2.069129E3,1.5832407E3,0E0,5.848828E1,8.958759E2,8.930371E2,2.4553528E2,2.4234375E1,9.861172E2,4.554478E2,6.1069727E2,6.002494E2,1.0957153E1,0E0,6.893739E2,2.979156E2,2.4872144E2,2.6786892E1,1.6536963E2,0E0,1.0140625E1,0E0,4.7509375E2,1.1807887E3,5.4257385E1,1.1328735E0,0E0,2.9679254E2,1.06618286E2,0E0,0E0,0E0,2.243205E2,3.8461218E2,0E0,5.7330933E0,8.191406E1,9.701868E0,0E0,0E0,0E0,1.4685779E2,7.734375E0,1.2265953E1,0E0,0E0,0E0,0E0,0E0,0E0,0E0,0E0,0E0,0E0,0E0,0E0,0E0,0E0,0E0,0E0,0E0,0E0,0E0,0E0,0E0,0E0,0E0,0E0,0E0,0E0,0E0,0E0],"parents":[2147483647,0,0,1,1,2,2,3,3,4,4,5,5,6,6,7,7,8,8,10,10,11,11,12,12,13,13,14,14,15,15,16,16,17,17,18,18,19,19,21,21,22,22,23,23,24,24,25,25,27,27,29,29,30,30,31,31,32,32,34,34,35,35,39,39,40,40,42,42,43,43,44,44,48,48,49,49,50,50],"right_children":[2,4,6,8,10,12,14,16,18,-1,20,22,24,26,28,30,32,34,36,38,-1,40,42,44,46,48,-1,50,-1,52,54,56,58,-1,60,62,-1,-1,-1,64,66,-1,68,70,72,-1,-1,-1,74,76,78,-1,-1,-1,-1,-1,-1,-1,-1,-1,-1,-1,-1,-1,-1,-1,-1,-1,-1,-1,-1,-1,-1,-1,-1,-1,-1,-1,-1],"split_conditions":[-1.7913876E-2,-6.748882E-2,2.8153858E-1,3.509499E-1,-2.5428253E-1,1.2305175E0,3.587783E-1,9.750972E-2,-2.298543E-1,-1.3956857E-1,1.2477598E0,2.2111219E-1,-1.3381371E-1,7.358179E-1,1.0910852E1,-1.6776118E-1,-1.394893E0,-9.3528414E-1,-2.1953507E-1,2.5599906E0,-7.037916E-2,-3.3977485E-1,-1.3849782E0,1.5888283E-1,-5.4057326E-2,-1.6593107E0,-1.7526661E-1,6.008119E0,-4.327191E-2,-3.0723515E-1,-4.807132E-1,-2.5704128E-1,2.5028068E-1,-1.5382548E-1,1.5495101E-2,2.1300187E-2,4.9383856E-2,5.5321295E-2,-8.352461E-3,1.7741526E0,1.5608846E0,4.4542737E-2,2.3400645E-1,-3.3977485E-1,-4.2225334E-1,-5.2274663E-2,5.3253878E-2,-1.7218028E-1,-4.3119434E-1,8.971173E0,-3.506409E-1,-1.3741204E-1,-9.556153E-2,-1.391779E-1,1.6393584E-3,-1.3757177E-1,1.088538E-2,5.5573083E-2,3.0620608E-2,4.8161175E-2,-2.0424949E-1,-1.6215675E-1,4.9869012E-2,-1.5135041E-1,5.2519914E-2,4.505723E-2,-1.5974277E-1,-1.545814E-1,-2.309011E-1,-1.4928831E-1,-2.3459189E-1,-2.8538188E-2,4.9885828E-2,-1.564612E-1,4.8177414E-2,5.493593E-2,9.433669E-3,-3.4616943E-2,4.7744494E-2],"split_indices":[3,417,3,1,2072,2100,3,372,0,0,2075,2064,275,225,25,970,930,3,2123,2077,0,1,1392,1064,2133,1029,0,1916,0,1396,1,2079,2092,0,2064,1194,0,0,0,10,903,0,3,1,2137,0,0,0,1,2297,794,0,0,0,0,0,0,0,0,0,0,0,0,0,0,0,0,0,0,0,0,0,0,0,0,0,0,0,0],"split_type":[0,0,0,0,0,0,0,0,0,0,0,0,0,0,0,0,0,0,0,0,0,0,0,0,0,0,0,0,0,0,0,0,0,0,0,0,0,0,0,0,0,0,0,0,0,0,0,0,0,0,0,0,0,0,0,0,0,0,0,0,0,0,0,0,0,0,0,0,0,0,0,0,0,0,0,0,0,0,0],"sum_hessian":[1.7698845E5,1.1990709E4,1.6499773E5,1.0223649E4,1.76706E3,2.2697827E3,1.6272795E5,9.266591E3,9.570583E2,8.806791E1,1.6789922E3,2.0556233E3,2.141592E2,1.3833096E3,1.6134464E5,9.027979E3,2.3861246E2,7.247047E2,2.323536E2,1.6704586E3,8.533554E0,1.9583711E3,9.725227E1,1.4971284E2,6.444635E1,1.3715615E3,1.1747948E1,1.6133905E5,5.595096E0,8.433132E3,5.9484705E2,4.814774E1,1.9046472E2,4.0462513E1,6.842422E2,1.8883167E2,4.3521935E1,1.6639207E3,6.537969E0,7.8370636E1,1.8800005E3,2.1467205E1,7.578507E1,1.3534923E2,1.4363614E1,5.891355E0,5.8554996E1,7.713579E0,1.363848E3,1.6132217E5,1.6879137E1,7.678012E3,7.5511914E2,2.8900327E2,3.058438E2,4.1103775E1,7.043965E0,1.816555E2,8.809212E0,6.733603E2,1.0881892E1,1.8313202E2,5.6996446E0,6.1728333E1,1.6642307E1,1.8577454E3,2.2255169E1,6.8957664E1,6.8274074E0,5.7502106E1,7.784712E1,5.9115314E0,8.452083E0,7.877356E0,1.3559706E3,1.6131236E5,9.817654E0,6.662339E0,1.0216797E1],"tree_param":{"num_deleted":"0","num_feature":"2703","num_nodes":"79","size_leaf_vector":"1"}},{"base_weights":[8.794358E-1,-1.6934819E0,1.0794506E0,-2.1146522E0,8.7338257E-1,3.2172093E-1,1.0905081E0,-2.3063815E0,-1.13232344E-1,-1.286979E-1,1.079751E0,-2.4501305E0,5.4280114E-1,8.4725106E-1,1.092511E0,-2.3539712E0,5.3753585E-2,6.3027096E-1,-2.1498246E0,1.0932095E0,-7.562625E-2,-1.3620494E-1,5.11352E-2,6.870414E-1,-2.1419926E0,-1.4546406E-1,8.908277E-1,1.0926245E0,-5.5813607E-2,-2.4403157E0,-1.1022774E0,-1.4109057E-1,8.848233E-1,-2.7938943E0,9.7664076E-1,5.5004038E-2,-1.8863272E-2,7.453459E-1,-4.3063025E0,4.936304E-2,-3.0738673E0,9.1944385E-1,-1.4343618E-1,1.0926874E0,-2.0998446E-2,-1.2504186E-1,-7.667559E-2,-5.170148E-3,-1.3994227E-1,4.7620304E-2,-1.8629004E-1,-1.451582E-1,4.9246605E-2,8.792105E-3,5.4065067E-2,4.0847816E-2,-1.446679E-1,-2.3827283E-1,-1.1249534E-1,-1.427027E-1,-2.2490735E-1,4.699906E-2,-1.6635628E-1,5.4636944E-2,5.8921683E-3],"categories":[],"categories_nodes":[],"categories_segments":[],"categories_sizes":[],"default_left":[0,0,0,0,0,0,0,0,0,0,0,0,0,0,0,0,0,0,0,0,0,0,0,0,0,0,0,0,0,0,0,0,0,0,0,0,0,0,0,0,0,0,0,0,0,0,0,0,0,0,0,0,0,0,0,0,0,0,0,0,0,0,0,0,0],"id":7,"left_children":[1,3,5,7,9,11,13,15,17,-1,19,21,23,25,27,29,-1,31,33,35,-1,-1,-1,37,39,-1,41,43,-1,45,47,-1,49,51,53,-1,-1,55,57,-1,59,61,-1,63,-1,-1,-1,-1,-1,-1,-1,-1,-1,-1,-1,-1,-1,-1,-1,-1,-1,-1,-1,-1,-1],"loss_changes":[8.741906E4,1.32485E4,1.3202188E3,4.039004E3,1.2319808E3,1.3914072E3,7.4765625E1,1.5483477E3,1.3963699E3,0E0,5.8553345E1,1.6238348E2,8.1534894E2,2.1100256E2,3.9859375E1,1.0211289E3,0E0,5.9623083E2,4.993219E2,1.6814209E1,0E0,0E0,0E0,5.840981E2,3.1621283E2,0E0,1.3811963E2,1.50625E1,0E0,4.8245703E2,1.0387452E3,0E0,1.998642E2,8.7401245E1,3.4025803E0,0E0,0E0,5.164874E2,1.1161133E1,0E0,1.314624E1,1.1219263E2,0E0,7.609375E0,0E0,0E0,0E0,0E0,0E0,0E0,0E0,0E0,0E0,0E0,0E0,0E0,0E0,0E0,0E0,0E0,0E0,0E0,0E0,0E0,0E0],"parents":[2147483647,0,0,1,1,2,2,3,3,4,4,5,5,6,6,7,7,8,8,10,10,11,11,12,12,13,13,14,14,15,15,17,17,18,18,19,19,23,23,24,24,26,26,27,27,29,29,30,30,32,32,33,33,34,34,37,37,38,38,40,40,41,41,43,43],"right_children":[2,4,6,8,10,12,14,16,18,-1,20,22,24,26,28,30,-1,32,34,36,-1,-1,-1,38,40,-1,42,44,-1,46,48,-1,50,52,54,-1,-1,56,58,-1,60,62,-1,64,-1,-1,-1,-1,-1,-1,-1,-1,-1,-1,-1,-1,-1,-1,-1,-1,-1,-1,-1,-1,-1],"split_conditions":[-1.7913876E-2,-6.7593016E-2,2.8153858E-1,3.509499E-1,-2.5428253E-1,-3.3977485E-1,3.587783E-1,7.141615E-1,-2.298543E-1,-1.286979E-1,4.506413E-1,3.6909154E-1,2.2111219E-1,-4.3119434E-1,6.061903E0,-3.722827E-2,5.3753585E-2,-9.067648E-1,-2.1953507E-1,2.5599906E0,-7.562625E-2,-1.3620494E-1,5.11352E-2,2.2688978E0,-1.8573669E0,-1.4546406E-1,-1.21757805E-1,1.4809454E1,-5.5813607E-2,-2.112997E-1,-3.2297558E-1,-1.4109057E-1,-5.0295377E-1,-2.5797406E-2,-7.732906E-2,5.5004038E-2,-1.8863272E-2,1.5608846E0,-2.1906266E-1,4.936304E-2,2.3400645E-1,-3.16647E-1,-1.4343618E-1,3.3512016E1,-2.0998446E-2,-1.2504186E-1,-7.667559E-2,-5.170148E-3,-1.3994227E-1,4.7620304E-2,-1.8629004E-1,-1.451582E-1,4.9246605E-2,8.792105E-3,5.4065067E-2,4.0847816E-2,-1.446679E-1,-2.3827283E-1,-1.1249534E-1,-1.427027E-1,-2.2490735E-1,4.699906E-2,-1.6635628E-1,5.4636944E-2,5.8921683E-3],"split_indices":[3,932,3,1,2072,1,3,520,0,0,2075,103,2064,1,1916,2,0,3,2123,2077,0,0,0,2290,1392,0,582,99,0,2147,0,0,1692,1105,3,0,0,903,451,0,3,771,0,373,0,0,0,0,0,0,0,0,0,0,0,0,0,0,0,0,0,0,0,0,0],"split_type":[0,0,0,0,0,0,0,0,0,0,0,0,0,0,0,0,0,0,0,0,0,0,0,0,0,0,0,0,0,0,0,0,0,0,0,0,0,0,0,0,0,0,0,0,0,0,0,0,0,0,0,0,0,0,0,0,0,0,0,0,0,0,0,0,0],"sum_hessian":[1.6986597E5,1.2252092E4,1.5761388E5,1.0525283E4,1.726808E3,2.2673975E3,1.5534648E5,9.605003E3,9.2028046E2,9.688543E1,1.6299225E3,1.6674208E2,2.1006553E3,1.2721498E3,1.5407433E5,9.472001E3,1.3300237E2,6.7466833E2,2.4561214E2,1.6220793E3,7.843184E0,1.5474965E2,1.1992437E1,1.9942582E3,1.06397224E2,1.3833893E1,1.2583158E3,1.5406692E5,7.4105825E0,8.859877E3,6.121235E2,4.56401E1,6.290282E2,2.0374574E2,4.1866394E1,1.6147858E3,7.293563E0,1.9720819E3,2.217617E1,2.4400488E1,8.1996735E1,1.2495602E3,8.755694E0,1.5406081E5,6.1180267E0,8.303905E3,5.5597186E2,3.8595114E2,2.2617233E2,6.207231E2,8.305149E0,1.9824495E2,5.500787E0,5.1490593E0,3.6717335E1,1.9347806E3,3.7301353E1,1.7051512E1,5.12466E0,7.3636116E1,8.3606205E0,1.244321E3,5.239143E0,1.5405255E5,8.25129E0],"tree_param":{"num_deleted":"0","num_feature":"2703","num_nodes":"65","size_leaf_vector":"1"}},{"base_weights":[8.714938E-1,-1.6124471E0,1.0737904E0,-1.9862225E0,8.5821456E-1,2.9849684E-1,1.0849488E0,-2.18427E0,-5.558732E-1,-1.2155113E-1,1.0513515E0,-2.2681823E0,5.1901746E-1,8.388221E-1,1.0869796E0,-2.27416E0,-3.3696435E-2,3.1488627E-1,-2.4466662E0,-1.16137445E-1,1.0864284E0,-1.2564288E-1,5.0721776E-2,6.682004E-1,-2.105192E0,8.8651973E-1,-3.3089714E0,1.0870581E0,-3.0536516E-2,-2.3451216E0,-1.2727654E0,-1.2339312E-1,5.8629996E-1,5.635067E-1,-2.0496738E0,-2.7001548E0,6.342968E-1,5.4719724E-2,-2.2714183E-2,7.3135257E-1,-3.7479951E0,-2.7971265E0,4.758094E-2,-1.3093443E-1,9.22895E-1,-2.6277643E-1,-2.0455291E-2,1.0871334E0,1.5142836E-1,-1.1803967E-1,-8.158402E-2,5.655206E-2,-1.08321466E-1,3.7710935E-2,-1.3584845E-1,-1.2271523E-1,3.540059E-2,-1.4822246E-1,5.1561248E-2,-1.3765994E-1,3.461547E-2,-2.077788E-2,5.5292446E-2,3.984954E-2,-1.3330059E-1,-2.0626016E-1,-1.0818865E-1,-1.3019796E-1,-1.916465E-1,4.821737E-2,-6.264013E-2,5.313279E-2,5.4481663E-2,4.8318695E-2,-2.5626872E-2],"categories":[],"categories_nodes":[],"categories_segments":[],"categories_sizes":[],"default_left":[0,0,0,0,0,0,0,0,0,0,0,0,0,0,0,0,0,0,0,0,0,0,0,0,0,0,0,0,0,0,0,0,0,0,0,0,0,0,0,0,0,0,0,0,0,0,0,0,0,0,0,0,0,0,0,0,0,0,0,0,0,0,0,0,0,0,0,0,0,0,0,0,0,0,0],"id":8,"left_children":[1,3,5,7,9,11,13,15,17,-1,19,21,23,25,27,29,31,33,35,-1,37,-1,-1,39,41,43,45,47,-1,49,51,-1,53,55,57,59,61,-1,-1,63,65,67,-1,-1,69,-1,-1,71,73,-1,-1,-1,-1,-1,-1,-1,-1,-1,-1,-1,-1,-1,-1,-1,-1,-1,-1,-1,-1,-1,-1,-1,-1,-1,-1],"loss_changes":[8.216294E4,1.1373238E4,1.3076719E3,3.0287344E3,1.0309453E3,1.216151E3,7.3609375E1,1.8160938E3,2.1447617E3,0E0,1.8357166E2,1.3910608E2,7.7559424E2,2.4511835E2,2.034375E1,6.3783203E2,5.718362E2,5.258296E2,3.2248047E2,0E0,1.9087158E1,0E0,0E0,5.2481085E2,2.2816495E2,1.5682501E2,7.760098E1,1.0234375E1,0E0,9.029297E1,1.2890815E3,0E0,1.6958073E2,3.5425507E2,2.4297552E2,7.023096E1,1.6317917E1,0E0,0E0,4.1386218E2,6.942688E0,7.4645996E0,0E0,0E0,1.0937225E2,0E0,0E0,7.859375E0,7.5569158E0,0E0,0E0,0E0,0E0,0E0,0E0,0E0,0E0,0E0,0E0,0E0,0E0,0E0,0E0,0E0,0E0,0E0,0E0,0E0,0E0,0E0,0E0,0E0,0E0,0E0,0E0],"parents":[2147483647,0,0,1,1,2,2,3,3,4,4,5,5,6,6,7,7,8,8,10,10,11,11,12,12,13,13,14,14,15,15,16,16,17,17,18,18,20,20,23,23,24,24,25,25,26,26,27,27,29,29,30,30,32,32,33,33,34,34,35,35,36,36,39,39,40,40,41,41,44,44,47,47,48,48],"right_children":[2,4,6,8,10,12,14,16,18,-1,20,22,24,26,28,30,32,34,36,-1,38,-1,-1,40,42,44,46,48,-1,50,52,-1,54,56,58,60,62,-1,-1,64,66,68,-1,-1,70,-1,-1,72,74,-1,-1,-1,-1,-1,-1,-1,-1,-1,-1,-1,-1,-1,-1,-1,-1,-1,-1,-1,-1,-1,-1,-1,-1,-1,-1],"split_conditions":[-1.7913876E-2,-6.7593016E-2,2.8153858E-1,-3.722827E-2,-4.549315E-1,-3.3977485E-1,3.587783E-1,1.322778E0,-2.298543E-1,-1.2155113E-1,-5.362151E-1,1.7741526E0,2.2111219E-1,2.2710063E0,1.389267E1,-2.1953507E-1,-7.808047E-1,2.9269695E-1,-2.051621E-1,-1.16137445E-1,2.5599906E0,-1.2564288E-1,5.0721776E-2,2.2688978E0,-4.7051627E-2,-4.184972E-1,-2.2857694E-1,6.061903E0,-3.0536516E-2,1.1966176E0,3.5697777E0,-1.2339312E-1,-3.924842E-1,-8.4021986E-1,-2.252438E-1,-2.5797406E-2,7.6151663E-1,5.4719724E-2,-2.2714183E-2,1.4844724E0,-2.1906266E-1,2.3400645E-1,4.758094E-2,-1.3093443E-1,2.1181178E0,-2.6277643E-1,-2.0455291E-2,5.120695E-1,-3.5374177E-1,-1.1803967E-1,-8.158402E-2,5.655206E-2,-1.08321466E-1,3.7710935E-2,-1.3584845E-1,-1.2271523E-1,3.540059E-2,-1.4822246E-1,5.1561248E-2,-1.3765994E-1,3.461547E-2,-2.077788E-2,5.5292446E-2,3.984954E-2,-1.3330059E-1,-2.0626016E-1,-1.0818865E-1,-1.3019796E-1,-1.916465E-1,4.821737E-2,-6.264013E-2,5.313279E-2,5.4481663E-2,4.8318695E-2,-2.5626872E-2],"split_indices":[3,932,3,2,2143,1,3,0,0,0,2078,10,2064,2082,99,2123,3,2063,1187,0,2077,0,0,2290,1475,1,2102,1916,0,0,2122,0,2,3,527,1105,77,0,0,582,451,3,0,0,2280,0,0,3,1,0,0,0,0,0,0,0,0,0,0,0,0,0,0,0,0,0,0,0,0,0,0,0,0,0,0],"split_type":[0,0,0,0,0,0,0,0,0,0,0,0,0,0,0,0,0,0,0,0,0,0,0,0,0,0,0,0,0,0,0,0,0,0,0,0,0,0,0,0,0,0,0,0,0,0,0,0,0,0,0,0,0,0,0,0,0,0,0,0,0,0,0,0,0,0,0,0,0,0,0,0,0,0,0],"sum_hessian":[1.6350622E5,1.2312888E4,1.5119333E5,1.0695074E4,1.617814E3,2.1455757E3,1.4904777E5,9.393865E3,1.3012094E3,8.908342E1,1.5287305E3,1.6902124E2,1.9765544E3,1.2231461E3,1.4782461E5,9.016917E3,3.7694797E2,8.9148895E2,4.0972046E2,1.5058019E1,1.5136725E3,1.5751509E2,1.15061455E1,1.8709393E3,1.0561516E2,1.2100177E3,1.312835E1,1.4781814E5,6.4683886E0,8.418981E3,5.979359E2,7.591558E1,3.0103238E2,8.073611E2,8.412788E1,3.786873E2,3.103317E1,1.5061747E3,7.49775E0,1.8453844E3,2.5554853E1,8.619023E1,1.9424927E1,1.169884E1,1.198319E3,7.3693094E0,5.7590404E0,1.478061E5,1.2050575E1,8.235761E3,1.8322017E2,1.6197758E2,4.359583E2,2.8720428E2,1.3828102E1,3.6162727E1,7.711983E2,6.489666E1,1.923121E1,3.7304288E2,5.6443963E0,9.6553755E0,2.1377794E1,1.8111577E3,3.422672E1,1.9344854E1,6.209999E0,7.560464E1,1.0585593E1,1.1764612E3,2.1857723E1,1.3735788E4,1.3407031E5,5.205695E0,6.84488E0],"tree_param":{"num_deleted":"0","num_feature":"2703","num_nodes":"75","size_leaf_vector":"1"}},{"base_weights":[8.63373E-1,-1.5209296E0,1.0674723E0,-1.8722692E0,8.7765646E-1,2.9043245E-1,1.0793052E0,-2.0634148E0,-4.9484518E-1,-1.1158178E-1,1.0710882E0,5.4629225E-1,-1.6031069E0,8.348629E-1,1.0814935E0,-2.137514E0,-1.0931466E-1,3.1987724E-1,-2.256741E0,-4.629941E-2,1.0828825E0,7.3442477E-1,-1.013897E0,-2.6709354E0,8.6603457E-1,8.7459034E-1,-2.9252303E0,1.0816277E0,-3.2717845E-1,-2.1958358E0,-1.2911265E0,-1.1480649E-1,5.0370914E-1,4.8394248E-1,-1.4266096E-1,-2.4841638E0,6.649054E-1,5.445508E-2,-9.820322E-3,7.8892124E-1,-1.5944585E-1,-2.0358732E0,5.4148544E-2,-3.1002665E0,6.862973E-1,-6.085406E-2,5.3059585E-2,-1.5943156E-1,9.038151E-1,-2.3902524E-3,-2.3766439E-1,1.0816758E0,-9.636255E-3,-5.8747925E-2,4.8206434E-2,-1.1040503E-1,-6.454926E-2,5.58299E-2,-9.418565E-2,3.3308897E-2,-1.2538983E-1,2.9650152E-2,-1.6698444E-1,-1.2653473E-1,2.1569526E-2,-2.0431709E-2,5.3355664E-2,-1.3394587E-1,4.2089634E-2,-1.2389441E-1,4.418877E-3,-1.6614518E-1,-1.10218875E-1,-1.7986005E-2,5.168348E-2,4.655158E-2,-1.358536E-1,5.188786E-2,5.415975E-2],"categories":[],"categories_nodes":[],"categories_segments":[],"categories_sizes":[],"default_left":[0,0,0,0,0,0,0,0,0,0,0,0,0,0,0,0,0,0,0,0,0,0,0,0,0,0,0,0,0,0,0,0,0,0,0,0,0,0,0,0,0,0,0,0,0,0,0,0,0,0,0,0,0,0,0,0,0,0,0,0,0,0,0,0,0,0,0,0,0,0,0,0,0,0,0,0,0,0,0],"id":9,"left_children":[1,3,5,7,9,11,13,15,17,-1,19,21,23,25,27,29,31,33,35,-1,37,39,41,43,45,47,49,51,53,55,57,-1,59,61,-1,63,65,-1,-1,67,-1,69,-1,71,73,-1,-1,-1,75,-1,-1,77,-1,-1,-1,-1,-1,-1,-1,-1,-1,-1,-1,-1,-1,-1,-1,-1,-1,-1,-1,-1,-1,-1,-1,-1,-1,-1,-1],"loss_changes":[7.618836E4,1.0405232E4,1.3256875E3,2.8341523E3,9.514276E2,1.0495583E3,7.509375E1,1.3689453E3,1.8862517E3,0E0,3.600952E1,5.6067737E2,6.823435E2,1.9148248E2,2.696875E1,4.4686328E2,4.6568695E2,4.6943567E2,2.7770654E2,0E0,1.197229E1,3.6661798E2,4.4299997E2,2.6199976E2,3.3254025E1,1.5158557E2,7.053706E1,8.8125E0,1.6658993E1,9.172266E1,8.435003E2,0E0,1.3449307E2,3.5882648E2,0E0,5.3412598E1,1.3732156E1,0E0,0E0,3.1035693E2,0E0,1.30396E2,0E0,2.4595215E1,8.097246E0,0E0,0E0,0E0,1.25134155E2,0E0,0E0,8.28125E0,0E0,0E0,0E0,0E0,0E0,0E0,0E0,0E0,0E0,0E0,0E0,0E0,0E0,0E0,0E0,0E0,0E0,0E0,0E0,0E0,0E0,0E0,0E0,0E0,0E0,0E0,0E0],"parents":[2147483647,0,0,1,1,2,2,3,3,4,4,5,5,6,6,7,7,8,8,10,10,11,11,12,12,13,13,14,14,15,15,16,16,17,17,18,18,20,20,21,21,22,22,23,23,24,24,25,25,26,26,27,27,28,28,29,29,30,30,32,32,33,33,35,35,36,36,39,39,41,41,43,43,44,44,48,48,51,51],"right_children":[2,4,6,8,10,12,14,16,18,-1,20,22,24,26,28,30,32,34,36,-1,38,40,42,44,46,48,50,52,54,56,58,-1,60,62,-1,64,66,-1,-1,68,-1,70,-1,72,74,-1,-1,-1,76,-1,-1,78,-1,-1,-1,-1,-1,-1,-1,-1,-1,-1,-1,-1,-1,-1,-1,-1,-1,-1,-1,-1,-1,-1,-1,-1,-1,-1,-1],"split_conditions":[-1.7913876E-2,-6.7593016E-2,2.8153858E-1,-3.722827E-2,-2.5428253E-1,1.2305175E0,3.587783E-1,1.322778E0,-2.298543E-1,-1.1158178E-1,8.6635774E-1,1.0263052E-1,-1.3381371E-1,2.7582605E0,6.061903E0,-2.1953507E-1,-7.808047E-1,-5.0295377E-1,-2.051621E-1,-4.629941E-2,2.5599906E0,1.6866614E0,-8.312793E-1,1.5888283E-1,-5.4057326E-2,-1.5951947E0,-7.0230955E-1,1.389267E1,1.1058964E0,-2.5797406E-2,3.5697777E0,-1.1480649E-1,-3.924842E-1,1.240413E0,-1.4266096E-1,-2.5797406E-2,1.441514E-1,5.445508E-2,-9.820322E-3,-1.3888373E0,-1.5944585E-1,-1.982124E-1,5.4148544E-2,-2.4390778E-1,4.6499023E-1,-6.085406E-2,5.3059585E-2,-1.5943156E-1,9.5180815E-1,-2.3902524E-3,-2.3766439E-1,4.3106034E-1,-9.636255E-3,-5.8747925E-2,4.8206434E-2,-1.1040503E-1,-6.454926E-2,5.58299E-2,-9.418565E-2,3.3308897E-2,-1.2538983E-1,2.9650152E-2,-1.6698444E-1,-1.2653473E-1,2.1569526E-2,-2.0431709E-2,5.3355664E-2,-1.3394587E-1,4.2089634E-2,-1.2389441E-1,4.418877E-3,-1.6614518E-1,-1.10218875E-1,-1.7986005E-2,5.168348E-2,4.655158E-2,-1.358536E-1,5.188786E-2,5.415975E-2],"split_indices":[3,932,3,2,2072,2100,3,0,0,0,2106,2063,275,2081,1916,2123,3,1692,1187,0,2077,2164,2100,1064,2133,1029,1032,99,2,1105,2122,0,2,460,0,1105,2136,0,0,1029,0,1122,0,727,18,0,0,0,751,0,0,3,0,0,0,0,0,0,0,0,0,0,0,0,0,0,0,0,0,0,0,0,0,0,0,0,0,0,0],"split_type":[0,0,0,0,0,0,0,0,0,0,0,0,0,0,0,0,0,0,0,0,0,0,0,0,0,0,0,0,0,0,0,0,0,0,0,0,0,0,0,0,0,0,0,0,0,0,0,0,0,0,0,0,0,0,0,0,0,0,0,0,0,0,0,0,0,0,0,0,0,0,0,0,0,0,0,0,0,0,0],"sum_hessian":[1.565574E5,1.2344274E4,1.4421312E5,1.076732E4,1.5769537E3,2.16355E3,1.4204958E5,9.45478E3,1.3125408E3,9.174082E1,1.4852129E3,1.9066326E3,2.569175E2,1.2637297E3,1.4078584E5,9.109263E3,3.4551715E2,8.9807715E2,4.1446356E2,8.264838E0,1.4769481E3,1.7019369E3,2.0469563E2,1.7929582E2,7.7621704E1,1.2512767E3,1.2453034E1,1.4077266E5,1.3182471E1,8.520548E3,5.8871533E2,7.504973E1,2.7046744E2,8.547307E2,4.3346447E1,3.846703E2,2.979325E1,1.4699509E3,6.9971952E0,1.6794083E3,2.2528606E1,1.3764096E2,6.705467E1,1.5903462E2,2.0261198E1,6.200532E0,7.142117E1,8.163537E0,1.2431132E3,5.236599E0,7.2164354E0,1.4076752E5,5.152763E0,8.01228E0,5.1701903E0,8.40518E3,1.1536777E2,1.1610155E2,4.726138E2,2.5736172E2,1.3105712E1,8.31849E2,2.288173E1,3.7875754E2,5.912762E0,8.115653E0,2.1677595E1,2.4474197E1,1.6549341E3,1.137958E2,2.3845158E1,1.25209755E2,3.3824867E1,5.0422583E0,1.521894E1,1.2345763E3,8.536839E0,4.7294854E3,1.3603803E5],"tree_param":{"num_deleted":"0","num_feature":"2703","num_nodes":"79","size_leaf_vector":"1"}},{"base_weights":[8.5761076E-1,-1.0104245E0,1.0074508E0,7.205452E-1,-1.3564012E0,3.3409554E-1,1.051021E0,-1.0306231E-1,9.567976E-1,-1.6054246E0,5.3116316E-1,-1.0557084E0,5.5816543E-1,1.0520244E0,-1.8760443E0,-9.874523E-2,1.0279039E0,4.9906215E-1,-1.8687446E0,-2.889821E-1,8.782015E-1,4.4444597E-1,-1.8499675E0,6.30626E-1,-1.1121362E-1,9.0297955E-1,1.0639095E0,-2.7952049E0,4.2258528E-1,-5.9879553E-1,1.0425234E0,-1.05239294E-1,7.0345896E-1,-1.916966E0,5.3824045E-2,-1.0535699E0,1.0309008E0,9.314561E-1,-1.2198855E-1,-7.3696995E-1,1.0211384E0,9.149794E-1,-2.033868E0,-1.0624673E-1,6.941146E-1,9.261162E-1,-2.7259626E0,1.0642419E0,-1.9783589E0,-1.0549469E-1,-1.5723914E-1,-2.5496795E-3,4.889619E-2,-9.161188E-2,4.7106616E-2,6.1730323E-3,5.2269734E-2,3.9551154E-2,-1.1210509E-1,-1.02812365E-1,-4.6577282E-2,-9.766741E-2,2.124134E-2,2.6228493E-2,5.400849E-2,4.8971042E-2,-1.1563253E-1,2.1546362E-2,-1.13020115E-1,-1.6327372E-2,5.2554794E-2,1.2006975E-2,5.1913377E-2,-1.0564648E-1,5.1821064E-2,3.7036613E-2,-1.15236595E-1,4.6975326E-2,-1.144784E-1,-1.4724731E-1,-1.2363921E-2,5.3244915E-2,1.2028749E-3,-1.6894923E-1,1.1662273E-2],"categories":[],"categories_nodes":[],"categories_segments":[],"categories_sizes":[],"default_left":[0,0,0,0,0,0,0,0,0,0,0,0,0,0,0,0,0,0,0,0,0,0,0,0,0,0,0,0,0,0,0,0,0,0,0,0,0,0,0,0,0,0,0,0,0,0,0,0,0,0,0,0,0,0,0,0,0,0,0,0,0,0,0,0,0,0,0,0,0,0,0,0,0,0,0,0,0,0,0,0,0,0,0,0,0],"id":10,"left_children":[1,3,5,7,9,11,13,-1,15,17,19,21,23,25,27,-1,29,31,33,35,37,39,41,43,-1,45,47,49,51,53,55,-1,57,59,-1,61,63,65,-1,67,69,71,73,-1,75,77,79,81,83,-1,-1,-1,-1,-1,-1,-1,-1,-1,-1,-1,-1,-1,-1,-1,-1,-1,-1,-1,-1,-1,-1,-1,-1,-1,-1,-1,-1,-1,-1,-1,-1,-1,-1,-1,-1],"loss_changes":[4.2106195E4,6.690756E3,4.0851719E3,1.225321E3,4.3770605E3,2.6365786E3,3.8609375E2,0E0,3.5983765E2,4.558992E3,3.0931476E2,1.4015265E3,1.4711978E3,2.3065625E2,9.663173E1,0E0,4.0492188E1,4.8873065E2,1.0403613E3,3.276649E2,1.371372E2,2.7856104E2,3.9278467E2,1.2446072E3,0E0,8.1382764E2,1.24515625E2,1.1277466E0,3.6722462E0,3.1314198E1,4.2564697E0,0E0,2.2091287E2,9.8537695E2,0E0,2.7406598E2,2.4071732E0,1.1926587E2,0E0,2.3997888E2,1.1422516E1,3.7971497E0,1.7725024E2,0E0,9.728225E2,4.1561523E2,3.263675E1,8.2640625E1,4.283832E1,0E0,0E0,0E0,0E0,0E0,0E0,0E0,0E0,0E0,0E0,0E0,0E0,0E0,0E0,0E0,0E0,0E0,0E0,0E0,0E0,0E0,0E0,0E0,0E0,0E0,0E0,0E0,0E0,0E0,0E0,0E0,0E0,0E0,0E0,0E0,0E0],"parents":[2147483647,0,0,1,1,2,2,3,3,4,4,5,5,6,6,8,8,9,9,10,10,11,11,12,12,13,13,14,14,16,16,17,17,18,18,19,19,20,20,21,21,22,22,23,23,25,25,26,26,27,27,28,28,29,29,30,30,32,32,33,33,35,35,36,36,37,37,39,39,40,40,41,41,42,42,44,44,45,45,46,46,47,47,48,48],"right_children":[2,4,6,8,10,12,14,-1,16,18,20,22,24,26,28,-1,30,32,34,36,38,40,42,44,-1,46,48,50,52,54,56,-1,58,60,-1,62,64,66,-1,68,70,72,74,-1,76,78,80,82,84,-1,-1,-1,-1,-1,-1,-1,-1,-1,-1,-1,-1,-1,-1,-1,-1,-1,-1,-1,-1,-1,-1,-1,-1,-1,-1,-1,-1,-1,-1,-1,-1,-1,-1,-1,-1],"split_conditions":[-5.0356805E-1,-1.791533E0,-1.284755E-1,-3.2841668E-1,-1.12659305E-1,-4.5385334E-1,6.061903E0,-1.0306231E-1,-1.0825579E0,-1.8320513E0,1.4769949E-1,-1.0615278E0,8.0699867E-1,1.8176505E-1,-4.0935868E-1,-9.874523E-2,-1.5427709E0,-5.362151E-1,7.141615E-1,-1.5355758E-1,4.262073E-1,1.1836767E0,-2.374369E0,-3.069922E0,-1.1121362E-1,2.5760663E0,1.1593585E1,1.1241717E-1,6.582208E-1,-1.0975369E-1,-1.3412292E0,-1.05239294E-1,5.772084E-1,-4.460159E-1,5.3824045E-2,-4.0935868E-1,-2.9494205E-1,7.1916074E-1,-1.2198855E-1,-1.0209637E0,-1.3412292E0,3.3341768E0,-2.5797406E-2,-1.0624673E-1,-2.4695614E-1,3.7014616E0,-4.077158E-1,1.5532923E0,-1.7219631E-1,-1.0549469E-1,-1.5723914E-1,-2.5496795E-3,4.889619E-2,-9.161188E-2,4.7106616E-2,6.1730323E-3,5.2269734E-2,3.9551154E-2,-1.1210509E-1,-1.02812365E-1,-4.6577282E-2,-9.766741E-2,2.124134E-2,2.6228493E-2,5.400849E-2,4.8971042E-2,-1.1563253E-1,2.1546362E-2,-1.13020115E-1,-1.6327372E-2,5.2554794E-2,1.2006975E-2,5.1913377E-2,-1.0564648E-1,5.1821064E-2,3.7036613E-2,-1.15236595E-1,4.6975326E-2,-1.144784E-1,-1.4724731E-1,-1.2363921E-2,5.3244915E-2,1.2028749E-3,-1.6894923E-1,1.1662273E-2],"split_indices":[1,2061,2,2284,2,1031,1916,0,1,0,2,2061,1397,2,561,0,432,2078,520,1361,2060,0,0,1392,0,958,1604,2,1,321,897,0,1033,2,0,561,582,1917,0,1028,897,1110,1105,0,413,2119,1117,0,562,0,0,0,0,0,0,0,0,0,0,0,0,0,0,0,0,0,0,0,0,0,0,0,0,0,0,0,0,0,0,0,0,0,0,0,0],"split_type":[0,0,0,0,0,0,0,0,0,0,0,0,0,0,0,0,0,0,0,0,0,0,0,0,0,0,0,0,0,0,0,0,0,0,0,0,0,0,0,0,0,0,0,0,0,0,0,0,0,0,0,0,0,0,0,0,0,0,0,0,0,0,0,0,0,0,0,0,0,0,0,0,0,0,0,0,0,0,0,0,0,0,0,0,0],"sum_hessian":[1.5042492E5,1.1169574E4,1.3925534E5,1.8604419E3,9.309133E3,8.463602E3,1.3079175E5,1.4503065E2,1.7154113E3,8.224268E3,1.0848654E3,1.1745693E3,7.289032E3,1.3074757E5,4.4177048E1,3.9986847E1,1.6754244E3,9.1450806E2,7.3097593E3,3.226124E2,7.622529E2,4.0675418E2,7.678152E2,7.1047817E3,1.8425027E2,9.661777E3,1.210858E5,3.1403568E1,1.2773481E1,1.456734E1,1.660857E3,6.588533E1,8.4862274E2,7.19235E3,1.1740935E2,2.0440532E2,1.18207085E2,7.509197E2,1.1333246E1,1.3333182E2,2.7342233E2,4.7635777E1,7.2017944E2,1.592774E2,6.9455044E3,9.601308E3,6.0469273E1,1.2107322E5,1.2574962E1,1.2984445E1,1.8419123E1,7.384413E0,5.389068E0,7.9859257E0,6.5814147E0,5.309542E0,1.6555475E3,8.24834E2,2.3788794E1,6.300709E3,8.916408E2,1.26869225E2,7.7536095E1,1.1515088E1,1.0669199E2,7.406669E2,1.0252814E1,7.587867E1,5.745315E1,5.7303867E0,2.6769196E2,7.8137226E0,3.9822056E1,7.02404E2,1.7775446E1,6.8399297E3,1.0557502E2,9.562198E3,3.9109623E1,5.538783E1,5.0814433E0,1.2099684E5,7.637962E1,7.3759036E0,5.1990576E0],"tree_param":{"num_deleted":"0","num_feature":"2703","num_nodes":"85","size_leaf_vector":"1"}},{"base_weights":[8.4935284E-1,-1.3656448E0,1.0590124E0,-1.656539E0,8.4941244E-1,2.625791E-1,1.069594E0,-1.8220857E0,-1.4243355E-1,-1.05409995E-1,1.048753E0,5.283418E-1,-1.9521039E0,8.0026424E-1,1.0719142E0,-1.8849998E0,-6.486974E-2,5.4086375E-1,-1.7862947E0,1.0723044E0,-1.6017866E-1,-2.0636783E0,6.755998E-1,-2.60744E0,7.0080763E-1,8.446017E-1,-1.3086991E-1,1.0720351E0,-8.625696E-2,-1.9567299E0,-9.517473E-1,-1.0404482E-1,4.248673E-1,-1.16183795E-1,7.972779E-1,-2.3213515E0,4.790592E-2,1.0779101E0,-1.2072636E-2,-1.101112E-1,-6.7383917E-3,7.5548524E-1,-1.2360038E-1,-2.8761065E0,2.55784E-1,-5.6177437E-2,5.1500954E-2,-1.12866215E-1,8.7712747E-1,1.0721169E0,-2.5896093E-2,4.847611E-2,-4.0133405E-2,-9.90599E-2,-2.5049556E-2,5.5789586E-2,-8.362344E-2,3.3238992E-2,-1.3657525E-1,4.374903E-2,-1.3895674E-1,-1.1929216E-1,4.0371682E-2,5.4099154E-2,6.3928002E-3,4.0413212E-2,-1.1610424E-1,-1.0538075E-1,-1.6835007E-1,4.818125E-2,-3.486855E-2,4.5627683E-2,-7.72554E-2,5.361001E-2,6.591437E-3],"categories":[],"categories_nodes":[],"categories_segments":[],"categories_sizes":[],"default_left":[0,0,0,0,0,0,0,0,0,0,0,0,0,0,0,0,0,0,0,0,0,0,0,0,0,0,0,0,0,0,0,0,0,0,0,0,0,0,0,0,0,0,0,0,0,0,0,0,0,0,0,0,0,0,0,0,0,0,0,0,0,0,0,0,0,0,0,0,0,0,0,0,0,0,0],"id":11,"left_children":[1,3,5,7,9,11,13,15,17,-1,19,21,23,25,27,29,31,33,35,37,-1,39,41,43,45,47,-1,49,51,53,55,-1,57,-1,59,61,-1,63,-1,-1,-1,65,-1,67,69,-1,-1,-1,71,73,-1,-1,-1,-1,-1,-1,-1,-1,-1,-1,-1,-1,-1,-1,-1,-1,-1,-1,-1,-1,-1,-1,-1,-1,-1],"loss_changes":[6.6867664E4,8.0240664E3,1.1082344E3,2.758418E3,8.547152E2,1.01693536E3,8.0265625E1,1.0966836E3,1.2206134E3,0E0,1.3916882E2,5.8992303E2,3.2371033E2,1.7081525E2,1.809375E1,6.393164E2,3.4048694E2,5.657887E2,4.707235E2,1.0192139E1,0E0,2.192038E1,3.6891766E2,1.1510907E2,2.365798E1,1.1287921E2,0E0,1.728125E1,1.1635187E1,3.1578906E2,1.0234579E3,0E0,2.1200519E2,0E0,1.9847083E2,5.586023E1,0E0,5.05896E0,0E0,0E0,0E0,2.3324042E2,0E0,4.421228E1,9.896799E0,0E0,0E0,0E0,9.481476E1,9.953125E0,0E0,0E0,0E0,0E0,0E0,0E0,0E0,0E0,0E0,0E0,0E0,0E0,0E0,0E0,0E0,0E0,0E0,0E0,0E0,0E0,0E0,0E0,0E0,0E0,0E0],"parents":[2147483647,0,0,1,1,2,2,3,3,4,4,5,5,6,6,7,7,8,8,10,10,11,11,12,12,13,13,14,14,15,15,16,16,17,17,18,18,19,19,21,21,22,22,23,23,24,24,25,25,27,27,28,28,29,29,30,30,32,32,34,34,35,35,37,37,41,41,43,43,44,44,48,48,49,49],"right_children":[2,4,6,8,10,12,14,16,18,-1,20,22,24,26,28,30,32,34,36,38,-1,40,42,44,46,48,-1,50,52,54,56,-1,58,-1,60,62,-1,64,-1,-1,-1,66,-1,68,70,-1,-1,-1,72,74,-1,-1,-1,-1,-1,-1,-1,-1,-1,-1,-1,-1,-1,-1,-1,-1,-1,-1,-1,-1,-1,-1,-1,-1,-1],"split_conditions":[2.0111872E-2,-3.62709E-2,2.8153858E-1,2.48103E-1,-2.5428253E-1,1.2305175E0,3.587783E-1,1.322778E0,-2.298543E-1,-1.05409995E-1,1.2813902E0,-3.3977485E-1,-1.3381371E-1,7.358179E-1,6.061903E0,-2.1953507E-1,-7.808047E-1,-9.067648E-1,-2.1953507E-1,5.381081E-1,-1.6017866E-1,-2.4473925E-1,1.396244E0,1.5888283E-1,-2.4216288E-1,-4.3119434E-1,-1.3086991E-1,1.4809454E1,-3.5374177E-1,-4.7401983E-2,3.599619E0,-1.0404482E-1,-1.9883654E-1,-1.16183795E-1,2.0063141E-1,8.3413474E-2,4.790592E-2,-1.4887312E-2,-1.2072636E-2,-1.101112E-1,-6.7383917E-3,1.3839798E0,-1.2360038E-1,-3.3977485E-1,-1.1535715E0,-5.6177437E-2,5.1500954E-2,-1.12866215E-1,2.523554E0,6.6312146E0,-2.5896093E-2,4.847611E-2,-4.0133405E-2,-9.90599E-2,-2.5049556E-2,5.5789586E-2,-8.362344E-2,3.3238992E-2,-1.3657525E-1,4.374903E-2,-1.3895674E-1,-1.1929216E-1,4.0371682E-2,5.4099154E-2,6.3928002E-3,4.0413212E-2,-1.1610424E-1,-1.0538075E-1,-1.6835007E-1,4.818125E-2,-3.486855E-2,4.5627683E-2,-7.72554E-2,5.361001E-2,6.591437E-3],"split_indices":[3,882,3,1,2072,2100,3,0,0,0,2075,1,275,225,1916,2123,3,3,2123,2067,0,2101,1537,1226,2126,1,0,99,1,1203,2122,0,1,0,1692,113,0,78,0,0,0,582,0,1,0,0,0,0,2094,2295,0,0,0,0,0,0,0,0,0,0,0,0,0,0,0,0,0,0,0,0,0,0,0,0,0],"split_type":[0,0,0,0,0,0,0,0,0,0,0,0,0,0,0,0,0,0,0,0,0,0,0,0,0,0,0,0,0,0,0,0,0,0,0,0,0,0,0,0,0,0,0,0,0,0,0,0,0,0,0,0,0,0,0,0,0,0,0,0,0,0,0,0,0,0,0,0,0,0,0,0,0,0,0],"sum_hessian":[1.4398453E5,1.2449834E4,1.3153469E5,1.1004863E4,1.4449702E3,1.7250248E3,1.2980967E5,9.920039E3,1.084824E3,9.0635635E1,1.3543345E3,1.54088E3,1.8414471E2,1.1116771E3,1.2869799E5,9.577076E3,3.429633E2,7.667734E2,3.180507E2,1.3476187E3,6.7158813E0,8.2134926E1,1.4587451E3,1.4768094E2,3.646378E1,1.0981832E3,1.3493909E1,1.2868464E5,1.3354027E1,8.892499E3,6.8457697E2,6.6395195E1,2.7656808E2,6.233489E1,7.044385E2,2.6628864E2,5.1762054E1,1.3420717E3,5.546993E0,7.649865E1,5.636274E0,1.42338E3,3.536504E1,1.3500813E2,1.2672799E1,5.2052946E0,3.1258486E1,1.0685891E1,1.0874973E3,1.2867835E5,6.2909164E0,5.2555656E0,8.098461E0,8.745148E3,1.473503E2,1.7681067E2,5.0776627E2,2.5776505E2,1.8803064E1,6.9019824E2,1.4240197E1,2.6114328E2,5.145339E0,1.3362042E3,5.8674407E0,1.4001062E3,2.3273844E1,5.4687973E1,8.032017E1,7.2659245E0,5.4068747E0,1.0724357E3,1.5061576E1,1.286668E5,1.1554305E1],"tree_param":{"num_deleted":"0","num_feature":"2703","num_nodes":"75","size_leaf_vector":"1"}},{"base_weights":[8.4171E-1,-1.3323885E0,1.0520124E0,-1.6036327E0,8.4030926E-1,2.6832277E-1,1.0645379E0,-1.7319566E0,3.2073972E-1,-9.896823E-2,1.039846E0,-4.9369857E-1,8.815213E-1,8.0277044E-1,1.066814E0,-1.7970501E0,2.64151E-1,8.1250614E-1,-2.2528996E0,-1.5138797E-1,1.0640336E0,-1.2645552E0,7.5096464E-1,9.369105E-1,-4.5065665E-1,-1.3831465E-1,8.4172016E-1,1.0669007E0,-3.923311E-2,-1.8716187E0,-8.159488E-1,-1.0500105E-1,9.5639455E-1,-1.6251153E-1,8.744398E-1,-1.0263044E-1,-1.5839376E-1,5.3828504E-2,-4.5144323E-2,-1.801437E0,3.1022796E-1,9.050992E-1,-1.673234E-1,9.928559E-1,-1.137704E-1,8.836135E-1,-1.2128931E-1,1.067037E0,1.9488138E-1,-9.4675146E-2,-2.6583657E-2,-9.079219E-2,3.7749104E-2,5.3170603E-2,-1.08783804E-1,4.687434E-2,-1.2959155E-1,-5.9862877E-3,-1.2450557E-1,4.001451E-2,-1.064626E-1,4.70443E-2,-5.6141343E-2,5.09098E-2,-7.873911E-2,-1.08533315E-1,4.554546E-2,5.335622E-2,-1.1266981E-2,-4.463781E-2,4.958282E-2],"categories":[],"categories_nodes":[],"categories_segments":[],"categories_sizes":[],"default_left":[0,0,0,0,0,0,0,0,0,0,0,0,0,0,0,0,0,0,0,0,0,0,0,0,0,0,0,0,0,0,0,0,0,0,0,0,0,0,0,0,0,0,0,0,0,0,0,0,0,0,0,0,0,0,0,0,0,0,0,0,0,0,0,0,0,0,0,0,0,0,0],"id":12,"left_children":[1,3,5,7,9,11,13,15,17,-1,19,21,23,25,27,29,31,33,35,-1,37,39,41,43,-1,-1,45,47,-1,49,51,-1,53,-1,55,-1,-1,-1,-1,57,59,61,-1,63,-1,65,-1,67,69,-1,-1,-1,-1,-1,-1,-1,-1,-1,-1,-1,-1,-1,-1,-1,-1,-1,-1,-1,-1,-1,-1],"loss_changes":[6.325792E4,7.1928945E3,1.238E3,2.6796074E3,7.644252E2,9.283501E2,7.3109375E1,1.3220078E3,8.612677E2,0E0,1.2778931E2,8.5112524E2,6.1170123E2,1.5167725E2,2.0625E1,7.1907227E2,5.291023E2,1.4648108E2,1.3510254E1,0E0,3.2025635E1,4.6351837E2,2.1745854E2,1.9913586E2,0E0,0E0,1.4772437E2,1.4421875E1,0E0,2.6739844E2,1.0970151E3,0E0,8.604709E1,0E0,1.2548273E2,0E0,0E0,0E0,0E0,4.728103E2,1.6915924E2,2.4860626E1,0E0,7.170642E1,0E0,8.957953E1,0E0,1.4140625E1,1.8610182E1,0E0,0E0,0E0,0E0,0E0,0E0,0E0,0E0,0E0,0E0,0E0,0E0,0E0,0E0,0E0,0E0,0E0,0E0,0E0,0E0,0E0,0E0],"parents":[2147483647,0,0,1,1,2,2,3,3,4,4,5,5,6,6,7,7,8,8,10,10,11,11,12,12,13,13,14,14,15,15,16,16,17,17,18,18,20,20,21,21,22,22,23,23,26,26,27,27,29,29,30,30,32,32,34,34,39,39,40,40,41,41,43,43,45,45,47,47,48,48],"right_children":[2,4,6,8,10,12,14,16,18,-1,20,22,24,26,28,30,32,34,36,-1,38,40,42,44,-1,-1,46,48,-1,50,52,-1,54,-1,56,-1,-1,-1,-1,58,60,62,-1,64,-1,66,-1,68,70,-1,-1,-1,-1,-1,-1,-1,-1,-1,-1,-1,-1,-1,-1,-1,-1,-1,-1,-1,-1,-1,-1],"split_conditions":[-1.7913876E-2,-3.62709E-2,2.8153858E-1,5.056521E-1,-2.5428253E-1,4.9484766E-1,3.587783E-1,4.1207697E-2,-1.13263406E-1,-9.896823E-2,-2.130385E0,-2.4025136E-1,8.2087725E-1,-1.5951947E0,1.383316E1,-2.1953507E-1,-4.607105E-1,-1.6469693E-1,-1.664518E-1,-1.5138797E-1,5.381081E-1,-2.827556E-1,-3.759048E-1,1.6187485E0,-4.5065665E-1,-1.3831465E-1,7.358179E-1,6.061903E0,-3.923311E-2,-4.7401983E-2,-6.875797E-1,-1.0500105E-1,1.7348934E0,-1.6251153E-1,2.505763E-1,-1.0263044E-1,-1.5839376E-1,5.3828504E-2,-4.5144323E-2,-3.8763392E-1,2.0436327E0,-2.9682787E-2,-1.673234E-1,9.5757574E-1,-1.137704E-1,-4.3119434E-1,-1.2128931E-1,6.378104E0,-3.506409E-1,-9.4675146E-2,-2.6583657E-2,-9.079219E-2,3.7749104E-2,5.3170603E-2,-1.08783804E-1,4.687434E-2,-1.2959155E-1,-5.9862877E-3,-1.2450557E-1,4.001451E-2,-1.064626E-1,4.70443E-2,-5.6141343E-2,5.09098E-2,-7.873911E-2,-1.08533315E-1,4.554546E-2,5.335622E-2,-1.1266981E-2,-4.463781E-2,4.958282E-2],"split_indices":[3,882,3,2,2072,2,3,175,0,0,2068,2282,1646,1029,99,2123,2294,1029,3,0,2067,2145,2084,1708,0,0,225,1916,0,1203,2132,0,2106,0,1692,0,0,0,0,2070,2280,2071,0,1867,0,1,0,2295,794,0,0,0,0,0,0,0,0,0,0,0,0,0,0,0,0,0,0,0,0,0,0],"split_type":[0,0,0,0,0,0,0,0,0,0,0,0,0,0,0,0,0,0,0,0,0,0,0,0,0,0,0,0,0,0,0,0,0,0,0,0,0,0,0,0,0,0,0,0,0,0,0,0,0,0,0,0,0,0,0,0,0,0,0,0,0,0,0,0,0,0,0,0,0,0,0],"sum_hessian":[1.3834984E5,1.2201885E4,1.2614795E5,1.0847875E4,1.3540099E3,1.9848201E3,1.2416313E5,1.0169816E4,6.780592E2,8.88957E1,1.2651143E3,8.851008E2,1.0997192E3,1.073344E3,1.2308979E5,9.848746E3,3.2106976E2,5.698564E2,1.0820284E2,6.7443686E0,1.2583699E3,5.465749E2,3.3852594E2,1.0944977E3,5.2215667E0,1.0831196E1,1.0625128E3,1.23084445E5,5.3462005E0,9.152224E3,6.9652234E2,7.225807E1,2.488117E2,7.7836494E0,5.6207275E2,9.143156E1,1.6771286E1,1.2508501E3,7.5197806E0,4.0750323E2,1.3907164E2,3.2700403E2,1.1521921E1,1.0764414E3,1.8056269E1,1.049783E3,1.2729912E1,1.2306499E5,1.9453293E1,9.004744E3,1.4748012E2,4.2552225E2,2.7100012E2,2.4122977E2,7.581931E0,5.527485E2,9.324253E0,1.18734024E2,2.8876923E2,1.1636688E2,2.2704763E1,3.218602E2,5.1438146E0,1.0665193E3,9.922048E0,8.6031E0,1.0411798E3,1.2305684E5,8.149123E0,8.174387E0,1.1278906E1],"tree_param":{"num_deleted":"0","num_feature":"2703","num_nodes":"71","size_leaf_vector":"1"}},{"base_weights":[8.3588105E-1,-7.855472E-1,1.0034174E0,-1.0586343E0,7.361583E-1,6.5209687E-1,1.0325534E0,5.587237E-1,-1.2485907E0,-9.088301E-2,9.4208914E-1,7.0048785E-1,-1.4449946E0,1.033846E0,-1.5260516E0,-9.47351E-2,7.398799E-1,-1.4243761E0,-8.153896E-2,-8.6097315E-2,1.0083652E0,7.5263923E-1,-7.1639484E-1,-1.713642E0,4.6452437E-2,1.0343486E0,-1.7643135E0,-1.0834246E-1,2.6944147E-2,8.104827E-1,-1.0119283E-1,-1.5838455E0,-5.685939E-1,-1.9585773E0,2.8189746E-1,1.0196006E0,-4.4352885E-2,7.73255E-1,-1.9017715E0,-1.8328772E0,1.2329405E-1,-1.8771352E0,4.965446E-2,1.0463504E0,9.1946137E-1,6.063946E-3,-1.2350439E-1,-8.3278194E-2,4.2661745E-2,4.287677E-2,-1.049663E-1,-8.130168E-2,5.2714664E-2,-7.644145E-2,-4.8609604E-3,-9.465173E-2,-1.3939522E-1,-7.523549E-2,3.097489E-2,2.8421665E-2,5.129629E-2,3.9674185E-2,-9.4032116E-2,-1.0914725E-1,4.102177E-2,-1.0601562E-1,4.1866366E-2,-1.00874834E-1,2.7959777E-2,-9.6664004E-2,-5.64686E-3,5.235935E-2,1.8633066E-3,4.652934E-2,-1.22411504E-1],"categories":[],"categories_nodes":[],"categories_segments":[],"categories_sizes":[],"default_left":[0,0,0,0,0,0,0,0,0,0,0,0,0,0,0,0,0,0,0,0,0,0,0,0,0,0,0,0,0,0,0,0,0,0,0,0,0,0,0,0,0,0,0,0,0,0,0,0,0,0,0,0,0,0,0,0,0,0,0,0,0,0,0,0,0,0,0,0,0,0,0,0,0,0,0],"id":13,"left_children":[1,3,5,7,9,11,13,15,17,-1,19,21,23,25,27,-1,29,31,33,-1,35,37,39,41,-1,43,45,-1,47,49,-1,51,53,55,57,59,-1,61,63,65,67,69,-1,71,73,-1,-1,-1,-1,-1,-1,-1,-1,-1,-1,-1,-1,-1,-1,-1,-1,-1,-1,-1,-1,-1,-1,-1,-1,-1,-1,-1,-1,-1,-1],"loss_changes":[3.5915438E4,5.146231E3,1.2259062E3,3.2261094E3,9.9283185E2,9.3254517E2,3.6754688E2,4.921328E2,1.9273428E3,0E0,3.0976782E2,6.635825E2,1.3384695E2,1.5735156E2,5.6062744E1,0E0,2.0241095E2,1.1134336E3,8.4029706E2,0E0,3.716919E1,4.750952E2,2.993451E2,8.44577E1,0E0,1.5151562E2,2.7222382E1,0E0,2.5791418E1,1.3926282E2,0E0,7.676953E2,5.8108514E2,5.583069E0,6.234887E2,4.2492676E0,0E0,4.6259326E2,5.3066666E1,1.0694003E2,1.7193694E2,1.7249634E1,0E0,8.4453125E1,3.9444922E2,0E0,0E0,0E0,0E0,0E0,0E0,0E0,0E0,0E0,0E0,0E0,0E0,0E0,0E0,0E0,0E0,0E0,0E0,0E0,0E0,0E0,0E0,0E0,0E0,0E0,0E0,0E0,0E0,0E0,0E0],"parents":[2147483647,0,0,1,1,2,2,3,3,4,4,5,5,6,6,7,7,8,8,10,10,11,11,12,12,13,13,14,14,16,16,17,17,18,18,20,20,21,21,22,22,23,23,25,25,26,26,28,28,29,29,31,31,32,32,33,33,34,34,35,35,37,37,38,38,39,39,40,40,41,41,43,43,44,44],"right_children":[2,4,6,8,10,12,14,16,18,-1,20,22,24,26,28,-1,30,32,34,-1,36,38,40,42,-1,44,46,-1,48,50,-1,52,54,56,58,60,-1,62,64,66,68,70,-1,72,74,-1,-1,-1,-1,-1,-1,-1,-1,-1,-1,-1,-1,-1,-1,-1,-1,-1,-1,-1,-1,-1,-1,-1,-1,-1,-1,-1,-1,-1,-1],"split_conditions":[-3.931029E-1,-3.2544285E-1,-6.678623E-2,-1.8320513E0,-3.2841668E-1,3.0477755E0,6.061903E0,-5.362151E-1,-2.9397416E-1,-9.088301E-2,-1.0825579E0,3.0465753E0,3.2835467E0,1.1430421E1,-3.506409E-1,-9.47351E-2,5.772084E-1,-5.26423E-1,-1.1536089E0,-8.6097315E-2,1.485706E0,4.269197E0,-6.685876E-1,3.219419E-1,4.6452437E-2,1.833577E0,-4.0053E-2,-1.0834246E-1,5.134734E-1,2.6530447E0,-1.0119283E-1,1.7741526E0,7.661441E-2,-3.0444658E-1,-1.0698608E0,-1.5221255E0,-4.4352885E-2,2.8148615E0,-1.1968557E-1,1.2553478E1,-1.5221255E0,5.005905E-1,4.965446E-2,1.8288841E1,1.5532923E0,6.063946E-3,-1.2350439E-1,-8.3278194E-2,4.2661745E-2,4.287677E-2,-1.049663E-1,-8.130168E-2,5.2714664E-2,-7.644145E-2,-4.8609604E-3,-9.465173E-2,-1.3939522E-1,-7.523549E-2,3.097489E-2,2.8421665E-2,5.129629E-2,3.9674185E-2,-9.4032116E-2,-1.0914725E-1,4.102177E-2,-1.0601562E-1,4.1866366E-2,-1.00874834E-1,2.7959777E-2,-9.6664004E-2,-5.64686E-3,5.235935E-2,1.8633066E-3,4.652934E-2,-1.22411504E-1],"split_indices":[1,1316,1,0,2284,1963,1916,2078,751,0,1,2287,2500,1604,794,0,1033,1,2086,0,1023,436,699,359,0,2106,1029,0,1,884,0,10,0,2144,1,132,0,523,1091,1180,132,1057,0,2273,0,0,0,0,0,0,0,0,0,0,0,0,0,0,0,0,0,0,0,0,0,0,0,0,0,0,0,0,0,0,0],"split_type":[0,0,0,0,0,0,0,0,0,0,0,0,0,0,0,0,0,0,0,0,0,0,0,0,0,0,0,0,0,0,0,0,0,0,0,0,0,0,0,0,0,0,0,0,0,0,0,0,0,0,0,0,0,0,0,0,0,0,0,0,0,0,0,0,0,0,0,0,0,0,0,0,0,0,0],"sum_hessian":[1.3220916E5,1.2381028E4,1.1982813E5,1.0497448E4,1.88358E3,9.178448E3,1.1064969E5,1.1031224E3,9.394326E3,1.399676E2,1.7436124E3,8.972081E3,2.0636739E2,1.1059441E5,5.5276993E1,7.52013E1,1.0279211E3,8.164361E3,1.2299652E3,4.171829E1,1.7018942E3,8.65402E3,3.1806113E2,1.8563863E2,2.0728754E1,1.1057518E5,1.923051E1,3.8851013E1,1.6425982E1,1.003005E3,2.4916145E1,6.881237E3,1.2831241E3,1.9880563E2,1.0311597E3,1.6923246E3,9.569489E0,8.588029E3,6.5991005E1,1.360204E2,1.8204071E2,1.7535336E2,1.028527E1,1.00109125E5,1.0466052E4,5.4631004E0,1.3767411E1,5.0553317E0,1.1370649E1,9.877382E2,1.5266787E1,6.773304E3,1.0793268E2,4.217454E2,8.613788E2,1.8728674E2,1.1518889E1,1.6333276E2,8.6782684E2,2.465406E1,1.6676705E3,8.52376E3,6.426934E1,5.999255E1,5.9984584E0,1.2298732E2,1.3033084E1,3.0182194E1,1.5185852E2,1.6985205E2,5.5013103E0,1.0002617E5,8.295684E1,1.0432312E4,3.3740414E1],"tree_param":{"num_deleted":"0","num_feature":"2703","num_nodes":"75","size_leaf_vector":"1"}},{"base_weights":[8.284617E-1,-1.2473183E0,1.0448995E0,-1.4935244E0,8.279281E-1,3.3540362E-1,1.0576956E0,-1.6023355E0,2.0613009E-1,-9.160631E-2,1.0448321E0,-3.9467415E-1,8.7021464E-1,8.226592E-1,1.0589197E0,-1.6790948E0,-2.62528E-1,7.416176E-1,-1.8635869E0,1.0609623E0,-4.8682794E-2,-1.2836676E0,7.005772E-1,9.180673E-1,-3.7039208E-1,8.768408E-1,-1.1420573E-1,1.0590315E0,-2.1564707E-2,-1.6991489E0,2.8567475E-1,4.7988597E-1,-1.9293337E0,-1.23723246E-1,8.395995E-1,-2.3727446E0,1.9464956E-1,5.3465117E-2,-1.6101306E-2,-2.191649E0,4.604166E-1,-2.3260167E0,8.350468E-1,9.663513E-1,-1.5072425E-1,9.1036487E-1,-1.15970664E-1,9.9685144E-1,1.0607413E0,-8.726901E-2,-4.3196525E-2,-8.69316E-2,4.966434E-2,-8.956378E-2,4.465824E-2,-9.239706E-2,-1.5160944E-1,4.56021E-2,-1.2015163E-1,-1.0518135E-1,-1.722148E-1,5.2027952E-2,-7.540705E-2,-1.253594E-1,-7.916177E-3,4.2331982E-2,-1.040139E-1,-1.5830772E-1,-2.3897484E-2,-9.2942365E-2,4.4222843E-2,4.9180686E-2,-8.705658E-2,4.7019947E-2,-3.8416933E-2,5.0491612E-2,-1.6917154E-1,5.303977E-2,1.97046E-3],"categories":[],"categories_nodes":[],"categories_segments":[],"categories_sizes":[],"default_left":[0,0,0,0,0,0,0,0,0,0,0,0,0,0,0,0,0,0,0,0,0,0,0,0,0,0,0,0,0,0,0,0,0,0,0,0,0,0,0,0,0,0,0,0,0,0,0,0,0,0,0,0,0,0,0,0,0,0,0,0,0,0,0,0,0,0,0,0,0,0,0,0,0,0,0,0,0,0,0],"id":14,"left_children":[1,3,5,7,9,11,13,15,17,-1,19,21,23,25,27,29,31,33,35,37,-1,39,41,43,-1,45,-1,47,-1,49,51,53,55,-1,57,59,61,-1,-1,63,65,67,69,71,-1,73,-1,75,77,-1,-1,-1,-1,-1,-1,-1,-1,-1,-1,-1,-1,-1,-1,-1,-1,-1,-1,-1,-1,-1,-1,-1,-1,-1,-1,-1,-1,-1,-1],"loss_changes":[5.7378664E4,6.1627637E3,1.0496328E3,1.9941113E3,7.402183E2,8.009186E2,3.1804688E1,1.0415703E3,7.2126135E2,0E0,3.9575317E1,8.4566736E2,4.7572015E2,1.0182565E2,1.9304688E1,3.780664E2,6.817908E2,1.6491083E2,1.4067206E2,1.3895386E1,0E0,7.5995026E2,1.6040578E2,2.2656183E2,0E0,6.464264E1,0E0,1.0953125E1,0E0,3.6478516E2,1.4164452E2,3.5964877E2,9.634155E0,0E0,1.2016235E2,2.3707031E1,4.1119286E1,0E0,0E0,2.0192639E2,1.6358003E2,2.4613274E1,5.136325E1,5.6130005E1,0E0,2.9876251E1,0E0,1.763147E2,6.03125E0,0E0,0E0,0E0,0E0,0E0,0E0,0E0,0E0,0E0,0E0,0E0,0E0,0E0,0E0,0E0,0E0,0E0,0E0,0E0,0E0,0E0,0E0,0E0,0E0,0E0,0E0,0E0,0E0,0E0,0E0],"parents":[2147483647,0,0,1,1,2,2,3,3,4,4,5,5,6,6,7,7,8,8,10,10,11,11,12,12,13,13,14,14,15,15,16,16,17,17,18,18,19,19,21,21,22,22,23,23,25,25,27,27,29,29,30,30,31,31,32,32,34,34,35,35,36,36,39,39,40,40,41,41,42,42,43,43,45,45,47,47,48,48],"right_children":[2,4,6,8,10,12,14,16,18,-1,20,22,24,26,28,30,32,34,36,38,-1,40,42,44,-1,46,-1,48,-1,50,52,54,56,-1,58,60,62,-1,-1,64,66,68,70,72,-1,74,-1,76,78,-1,-1,-1,-1,-1,-1,-1,-1,-1,-1,-1,-1,-1,-1,-1,-1,-1,-1,-1,-1,-1,-1,-1,-1,-1,-1,-1,-1,-1,-1],"split_conditions":[2.0111872E-2,-6.748882E-2,3.1956434E-1,4.9484766E-1,-2.5428253E-1,4.9484766E-1,3.587783E-1,-1.1830192E-1,1.1943998E0,-9.160631E-2,9.406075E-1,-3.4787485E-1,8.2087725E-1,2.074996E0,1.0910852E1,9.548427E-1,-7.4285567E-1,-1.6469693E-1,-8.312793E-1,2.5599906E0,-4.8682794E-2,-2.827556E-1,-1.5681994E0,1.5974041E0,-3.7039208E-1,-1.21757805E-1,-1.1420573E-1,4.1984236E-1,-2.1564707E-2,-1.9636792E-1,-5.6694355E-2,-7.808047E-1,-3.722827E-2,-1.23723246E-1,-5.0295377E-1,-1.664518E-1,4.4799122E-1,5.3465117E-2,-1.6101306E-2,-2.5428253E-1,2.1388488E0,-4.232434E-1,-4.553189E-1,2.0476425E0,-1.5072425E-1,2.1388488E0,-1.15970664E-1,2.699439E0,1.0733597E1,-8.726901E-2,-4.3196525E-2,-8.69316E-2,4.966434E-2,-8.956378E-2,4.465824E-2,-9.239706E-2,-1.5160944E-1,4.56021E-2,-1.2015163E-1,-1.0518135E-1,-1.722148E-1,5.2027952E-2,-7.540705E-2,-1.253594E-1,-7.916177E-3,4.2331982E-2,-1.040139E-1,-1.5830772E-1,-2.3897484E-2,-9.2942365E-2,4.4222843E-2,4.9180686E-2,-8.705658E-2,4.7019947E-2,-3.8416933E-2,5.0491612E-2,-1.6917154E-1,5.303977E-2,1.97046E-3],"split_indices":[3,417,3,2,2072,2,3,350,1464,0,2075,1172,1646,2082,25,158,1069,1029,2100,2077,0,2145,382,2091,0,582,0,3,0,1375,2,3,2,0,1692,3,2100,0,0,2072,2280,2094,1,2290,0,2280,0,225,1687,0,0,0,0,0,0,0,0,0,0,0,0,0,0,0,0,0,0,0,0,0,0,0,0,0,0,0,0,0,0],"split_type":[0,0,0,0,0,0,0,0,0,0,0,0,0,0,0,0,0,0,0,0,0,0,0,0,0,0,0,0,0,0,0,0,0,0,0,0,0,0,0,0,0,0,0,0,0,0,0,0,0,0,0,0,0,0,0,0,0,0,0,0,0,0,0,0,0,0,0,0,0,0,0,0,0,0,0,0,0,0,0],"sum_hessian":[1.2770941E5,1.2058235E4,1.1565117E5,1.0779626E4,1.2786091E3,2.0493718E3,1.136018E5,1.0131096E4,6.485302E2,9.583739E1,1.1827717E3,8.666112E2,1.1827607E3,5.920188E2,1.1300978E5,9.581885E3,5.4921173E2,5.157377E2,1.3279254E2,1.1738654E3,8.9063E0,4.782518E2,3.8835938E2,1.1768468E3,5.9138536E0,5.8257654E2,9.442272E0,1.13001586E5,8.191151E0,9.485205E3,9.667888E1,3.8046185E2,1.687499E2,1.4530938E1,5.0120673E2,1.0633504E2,2.6457506E1,1.1670544E3,6.8109975E0,3.1434512E2,1.639067E2,1.5827269E1,3.725321E2,1.1633179E3,1.3528991E1,5.772373E2,5.339203E0,3.0397974E3,1.0996179E5,8.986683E3,4.9852304E2,2.4664026E1,7.201485E1,5.806008E1,3.224018E2,1.5964352E2,9.106368E0,4.9095715E2,1.0249577E1,8.735835E1,1.8976686E1,1.7936134E1,8.521373E0,2.7191525E2,4.2429863E1,1.4285709E2,2.1049616E1,1.0390491E1,5.4367776E0,6.050148E0,3.6648196E2,1.1565804E3,6.7374387E0,5.6752344E2,9.713882E0,3.031583E3,8.214505E0,1.0995593E5,5.862944E0],"tree_param":{"num_deleted":"0","num_feature":"2703","num_nodes":"79","size_leaf_vector":"1"}},{"base_weights":[8.232938E-1,-1.2027581E0,1.0404569E0,-1.439148E0,8.172297E-1,2.655153E-1,1.0520114E0,-1.5395869E0,1.9173843E-1,-8.8344686E-2,1.0399306E0,-4.360921E-1,8.5659075E-1,7.64977E-1,1.0546598E0,-1.5972362E0,-8.706853E-2,7.5738895E-1,-2.0430853E0,1.0568185E0,-6.2728226E-2,-1.138929E0,7.564328E-1,9.482821E-1,-3.5176811E0,8.1955695E-1,-3.0346103E0,1.0547949E0,-2.9382322E-2,-1.6632917E0,-7.3546207E-1,-1.3403367E0,6.6268986E-1,-2.0752172E-1,8.198875E-1,-2.1330755E0,-2.333941E-3,5.327579E-2,-1.7168839E-2,-1.9883283E0,-2.1853018E-1,8.94262E-1,-1.4581421E-1,9.776806E-1,-8.762395E-2,-1.0053325E-1,-2.5615555E-1,8.811602E-1,-1.7407832E0,-2.1322115E-1,-4.241445E-2,1.0548861E0,-2.3200711E-2,-8.429568E-2,1.7729206E-2,-8.120454E-2,3.3844776E-2,-9.508813E-2,5.1978018E-2,4.376529E-2,-8.4729224E-2,-1.5224276E-1,4.3564465E-2,-9.4898984E-2,-1.5515326E-1,-1.1627463E-1,3.2562145E-3,3.406448E-2,-5.0831653E-2,4.660782E-2,-1.0271185E-2,5.002589E-2,-4.119558E-2,4.5301113E-2,-1.0826939E-1,-2.132478E-1,3.917246E-2,5.2749272E-2,-1.4030525E-2],"categories":[],"categories_nodes":[],"categories_segments":[],"categories_sizes":[],"default_left":[0,0,0,0,0,0,0,0,0,0,0,0,0,0,0,0,0,0,0,0,0,0,0,0,0,0,0,0,0,0,0,0,0,0,0,0,0,0,0,0,0,0,0,0,0,0,0,0,0,0,0,0,0,0,0,0,0,0,0,0,0,0,0,0,0,0,0,0,0,0,0,0,0,0,0,0,0,0,0],"id":15,"left_children":[1,3,5,7,9,11,13,15,17,-1,19,21,23,25,27,29,31,33,35,37,-1,39,41,43,45,47,49,51,-1,53,55,57,59,-1,61,63,-1,-1,-1,65,67,69,-1,71,-1,-1,-1,73,75,-1,-1,77,-1,-1,-1,-1,-1,-1,-1,-1,-1,-1,-1,-1,-1,-1,-1,-1,-1,-1,-1,-1,-1,-1,-1,-1,-1,-1,-1],"loss_changes":[5.3815664E4,5.655383E3,9.888828E2,1.7367871E3,7.1611945E2,6.739601E2,8.19375E1,8.360625E2,7.801015E2,0E0,4.562903E1,6.239025E2,3.5705536E2,2.0961902E2,2.4554688E1,5.455332E2,3.6008563E2,1.5438043E2,2.2297974E1,1.419397E1,0E0,3.6552106E2,1.42448E2,7.0360535E1,3.4020233E1,1.5696295E2,3.498488E1,1.540625E1,0E0,4.0778906E2,8.615632E2,1.9360373E2,1.2169437E2,0E0,9.93696E1,2.1308655E1,0E0,0E0,0E0,1.6861206E2,1.6283974E2,1.1318832E1,0E0,3.604004E1,0E0,0E0,0E0,7.489905E1,1.5300565E2,0E0,0E0,1.459375E1,0E0,0E0,0E0,0E0,0E0,0E0,0E0,0E0,0E0,0E0,0E0,0E0,0E0,0E0,0E0,0E0,0E0,0E0,0E0,0E0,0E0,0E0,0E0,0E0,0E0,0E0,0E0],"parents":[2147483647,0,0,1,1,2,2,3,3,4,4,5,5,6,6,7,7,8,8,10,10,11,11,12,12,13,13,14,14,15,15,16,16,17,17,18,18,19,19,21,21,22,22,23,23,24,24,25,25,26,26,27,27,29,29,30,30,31,31,32,32,34,34,35,35,39,39,40,40,41,41,43,43,47,47,48,48,51,51],"right_children":[2,4,6,8,10,12,14,16,18,-1,20,22,24,26,28,30,32,34,36,38,-1,40,42,44,46,48,50,52,-1,54,56,58,60,-1,62,64,-1,-1,-1,66,68,70,-1,72,-1,-1,-1,74,76,-1,-1,78,-1,-1,-1,-1,-1,-1,-1,-1,-1,-1,-1,-1,-1,-1,-1,-1,-1,-1,-1,-1,-1,-1,-1,-1,-1,-1,-1],"split_conditions":[2.0111872E-2,-6.7593016E-2,2.8153858E-1,4.9484766E-1,-2.5428253E-1,4.9484766E-1,3.587783E-1,1.322778E0,-2.298543E-1,-8.8344686E-2,5.219275E-1,-2.4025136E-1,9.949905E-1,2.2710063E0,1.0910852E1,-2.1953507E-1,-5.3244925E-1,-1.0151091E0,-1.929799E-1,2.474316E0,-6.2728226E-2,1.8176505E-1,-4.3210182E-1,2.0323825E0,-2.1798873E-1,2.1388488E0,-5.392318E-1,1.0070617E1,-2.9382322E-2,9.548427E-1,-2.9330033E-1,1.7741526E0,-3.924842E-1,-2.0752172E-1,-2.2561922E0,-1.3674423E-1,-2.333941E-3,5.327579E-2,-1.7168839E-2,-2.112997E-1,-1.7562744E-1,-2.9682787E-2,-1.4581421E-1,1.119771E0,-8.762395E-2,-1.0053325E-1,-2.5615555E-1,-1.21757805E-1,-2.938961E-1,-2.1322115E-1,-4.241445E-2,8.971173E0,-2.3200711E-2,-8.429568E-2,1.7729206E-2,-8.120454E-2,3.3844776E-2,-9.508813E-2,5.1978018E-2,4.376529E-2,-8.4729224E-2,-1.5224276E-1,4.3564465E-2,-9.4898984E-2,-1.5515326E-1,-1.1627463E-1,3.2562145E-3,3.406448E-2,-5.0831653E-2,4.660782E-2,-1.0271185E-2,5.002589E-2,-4.119558E-2,4.5301113E-2,-1.0826939E-1,-2.132478E-1,3.917246E-2,5.2749272E-2,-1.4030525E-2],"split_indices":[3,932,3,2,2072,2,3,0,0,0,2075,2282,0,2082,25,2123,3,2060,1619,2077,0,2,2084,885,1038,2280,2088,1643,0,158,712,10,2,0,37,3,0,0,0,2147,2070,2071,0,125,0,0,0,582,1143,0,0,2297,0,0,0,0,0,0,0,0,0,0,0,0,0,0,0,0,0,0,0,0,0,0,0,0,0,0,0],"split_type":[0,0,0,0,0,0,0,0,0,0,0,0,0,0,0,0,0,0,0,0,0,0,0,0,0,0,0,0,0,0,0,0,0,0,0,0,0,0,0,0,0,0,0,0,0,0,0,0,0,0,0,0,0,0,0,0,0,0,0,0,0,0,0,0,0,0,0,0,0,0,0,0,0,0,0,0,0,0,0],"sum_hessian":[1.2230907E5,1.1840159E4,1.10468914E5,1.059998E4,1.2401788E3,1.6232631E3,1.0884565E5,9.985099E3,6.148817E2,9.784895E1,1.14233E3,7.423521E2,8.809109E2,9.9779767E2,1.0784785E5,9.60383E3,3.8126794E2,4.9121313E2,1.236686E2,1.134519E3,7.810835E0,4.6710184E2,2.752503E2,8.6359186E2,1.7318985E1,9.844408E2,1.3356903E1,1.07839336E5,8.513186E0,8.919235E3,6.84595E2,1.4241861E2,2.3884933E2,5.354219E0,4.8585892E2,1.1826904E2,5.399559E0,1.127753E3,6.766005E0,2.4231693E2,2.2478491E2,2.660235E2,9.226785E0,8.549238E2,8.668076E0,1.0095118E1,7.2238684E0,9.6195154E2,2.2489279E1,7.9400816E0,5.416822E0,1.0783317E5,6.16396E0,8.820516E3,9.872032E1,4.20116E2,2.6447897E2,1.15396965E2,2.7021635E1,2.1966516E2,1.9184174E1,5.6127963E0,4.8024612E2,9.757624E1,2.0692799E1,2.080276E2,3.428933E1,1.0572819E2,1.1905672E2,2.5730917E2,8.714336E0,8.446614E2,1.0262416E1,9.5486176E2,7.089754E0,1.0899965E1,1.15893135E1,1.0782537E5,7.807667E0],"tree_param":{"num_deleted":"0","num_feature":"2703","num_nodes":"79","size_leaf_vector":"1"}},{"base_weights":[8.1778747E-1,-1.1783117E0,1.0341535E0,-1.4050618E0,8.172258E-1,2.9187846E-1,1.0496366E0,-1.491424E0,1.7120638E-1,-8.434399E-2,1.032498E0,-4.1369975E-1,8.471423E-1,8.910751E-1,1.0514754E0,-1.5554911E0,-2.8741992E-1,7.4147886E-1,-1.9427546E0,1.0532159E0,-1.16210125E-1,-1.143885E0,6.3802075E-1,9.3612057E-1,-3.3311288E0,9.1948533E-1,-1.835956E-1,1.0515807E0,-3.5717026E-3,-1.6210588E0,-6.9227487E-1,4.4428915E-1,-1.764023E0,-1.5889798E-1,8.28434E-1,-9.087296E-2,-1.267087E-1,5.3204086E-2,-2.3563754E-2,-1.9933908E0,5.0340575E-1,7.531212E-1,-1.4080788E-1,9.58264E-1,-1.6779272E-1,-1.0207581E-1,-2.346899E-1,-1.4951003E-1,9.388187E-1,1.0516936E0,9.488861E-2,-8.207082E-2,9.49826E-3,5.2768867E-2,-7.117324E-2,-8.4041595E-2,4.3805577E-2,-8.4911644E-2,-1.16207324E-1,-1.4650781E-1,4.487683E-2,-1.1253319E-1,-1.1584801E-2,5.3527392E-2,-3.3232484E-2,4.0484946E-2,-1.4347875E-1,4.935708E-2,-4.2095624E-2,4.7900647E-2,-8.528643E-2,5.2588057E-2,-4.8999954E-3,4.831889E-2,-2.9900929E-2],"categories":[],"categories_nodes":[],"categories_segments":[],"categories_sizes":[],"default_left":[0,0,0,0,0,0,0,0,0,0,0,0,0,0,0,0,0,0,0,0,0,0,0,0,0,0,0,0,0,0,0,0,0,0,0,0,0,0,0,0,0,0,0,0,0,0,0,0,0,0,0,0,0,0,0,0,0,0,0,0,0,0,0,0,0,0,0,0,0,0,0,0,0,0,0],"id":16,"left_children":[1,3,5,7,9,11,13,15,17,-1,19,21,23,25,27,29,31,33,35,37,-1,39,41,43,45,47,-1,49,-1,51,53,55,57,-1,59,-1,-1,-1,-1,61,63,65,-1,67,-1,-1,-1,-1,69,71,73,-1,-1,-1,-1,-1,-1,-1,-1,-1,-1,-1,-1,-1,-1,-1,-1,-1,-1,-1,-1,-1,-1,-1,-1],"loss_changes":[5.049022E4,5.1744004E3,1.2118516E3,1.3978594E3,6.309282E2,8.4521295E2,2.9179688E1,7.5036914E2,6.4541406E2,0E0,7.723547E1,7.305581E2,4.518891E2,1.577677E2,1.215625E1,5.2193945E2,5.334386E2,1.4625803E2,3.824463E0,1.8217407E1,0E0,7.8645013E2,1.5720697E2,1.15619385E2,3.5034363E1,9.233234E1,0E0,1.0921875E1,0E0,3.1695117E2,8.3742194E2,3.047129E2,2.0799866E0,0E0,1.09914185E2,0E0,0E0,0E0,0E0,1.6740845E2,1.2774858E2,7.9858765E1,0E0,6.203894E1,0E0,0E0,0E0,0E0,6.1496826E1,8.03125E0,8.517388E0,0E0,0E0,0E0,0E0,0E0,0E0,0E0,0E0,0E0,0E0,0E0,0E0,0E0,0E0,0E0,0E0,0E0,0E0,0E0,0E0,0E0,0E0,0E0,0E0],"parents":[2147483647,0,0,1,1,2,2,3,3,4,4,5,5,6,6,7,7,8,8,10,10,11,11,12,12,13,13,14,14,15,15,16,16,17,17,18,18,19,19,21,21,22,22,23,23,24,24,25,25,27,27,29,29,30,30,31,31,32,32,34,34,39,39,40,40,41,41,43,43,48,48,49,49,50,50],"right_children":[2,4,6,8,10,12,14,16,18,-1,20,22,24,26,28,30,32,34,36,38,-1,40,42,44,46,48,-1,50,-1,52,54,56,58,-1,60,-1,-1,-1,-1,62,64,66,-1,68,-1,-1,-1,-1,70,72,74,-1,-1,-1,-1,-1,-1,-1,-1,-1,-1,-1,-1,-1,-1,-1,-1,-1,-1,-1,-1,-1,-1,-1,-1],"split_conditions":[-1.7913876E-2,-6.748882E-2,3.1956434E-1,4.9484766E-1,-2.5428253E-1,4.9484766E-1,3.7897947E-1,-1.1830192E-1,-2.298543E-1,-8.434399E-2,1.2813902E0,-3.4787485E-1,9.949905E-1,9.711251E-1,8.207308E0,-2.1953507E-1,-1.0542951E0,-4.5970806E-1,-1.3674423E-1,2.5599906E0,-1.16210125E-1,-2.827556E-1,1.969574E-1,2.52054E0,-6.3786983E-1,-2.0332332E0,-1.835956E-1,6.061903E0,-3.5717026E-3,1.13620214E-1,3.592344E0,-7.808047E-1,-1.284755E-1,-1.5889798E-1,-1.6469693E-1,-9.087296E-2,-1.267087E-1,5.3204086E-2,-2.3563754E-2,-2.5428253E-1,3.6877053E0,-1.8775918E0,-1.4080788E-1,2.2838194E0,-1.6779272E-1,-1.0207581E-1,-2.346899E-1,-1.4951003E-1,3.3092678E0,1.64791E1,-3.5374177E-1,-8.207082E-2,9.49826E-3,5.2768867E-2,-7.117324E-2,-8.4041595E-2,4.3805577E-2,-8.4911644E-2,-1.16207324E-1,-1.4650781E-1,4.487683E-2,-1.1253319E-1,-1.1584801E-2,5.3527392E-2,-3.3232484E-2,4.0484946E-2,-1.4347875E-1,4.935708E-2,-4.2095624E-2,4.7900647E-2,-8.528643E-2,5.2588057E-2,-4.8999954E-3,4.831889E-2,-2.9900929E-2],"split_indices":[3,417,3,2,2072,2,3,350,0,0,2075,1172,0,225,2298,2123,1069,2065,3,2077,0,2145,1033,2290,2061,0,0,1916,0,506,2149,3,2,0,1029,0,0,0,0,2072,2145,1843,0,2137,0,0,0,0,582,1057,1,0,0,0,0,0,0,0,0,0,0,0,0,0,0,0,0,0,0,0,0,0,0,0,0],"split_type":[0,0,0,0,0,0,0,0,0,0,0,0,0,0,0,0,0,0,0,0,0,0,0,0,0,0,0,0,0,0,0,0,0,0,0,0,0,0,0,0,0,0,0,0,0,0,0,0,0,0,0,0,0,0,0,0,0,0,0,0,0,0,0,0,0,0,0,0,0,0,0,0,0,0,0],"sum_hessian":[1.1690201E5,1.1431891E4,1.0547012E5,1.0265708E4,1.1661824E3,2.15546E3,1.0331466E5,9.732527E3,5.331813E2,9.177653E1,1.0744059E3,9.493581E2,1.2061019E3,1.1899629E3,1.02124695E5,9.24053E3,4.9199634E2,4.204168E2,1.1276446E2,1.0684973E3,5.908631E0,5.602806E2,3.890775E2,1.1817128E3,2.4389185E1,1.1833933E3,6.569611E0,1.0211519E5,9.509053E0,8.587378E3,6.5315295E2,3.294442E2,1.6255214E2,8.353246E0,4.1206357E2,9.641206E1,1.6352392E1,1.0612354E3,7.261906E0,3.6951306E2,1.9076755E2,3.7728748E2,1.1790042E1,1.17642E3,5.2927155E0,1.3813981E1,1.0575203E1,5.066933E0,1.1783263E3,1.0210304E5,1.2147852E1,8.492013E3,9.5364914E1,1.925313E2,4.6062167E2,5.5148796E1,2.742954E2,1.4907431E2,1.34778385E1,6.691655E0,4.0537192E2,3.2218457E2,4.732849E1,1.2847217E2,6.2295376E1,3.722503E2,5.0371537E0,1.158291E3,1.812912E1,1.1704688E3,7.8575897E0,1.02097125E5,5.9102707E0,5.2057548E0,6.9420967E0],"tree_param":{"num_deleted":"0","num_feature":"2703","num_nodes":"75","size_leaf_vector":"1"}},{"base_weights":[8.120889E-1,-1.1108307E0,1.032032E0,-1.3298466E0,8.174964E-1,3.3363667E-1,1.0456713E0,-1.4353586E0,-9.457046E-2,-8.2781754E-2,1.0335865E0,5.465309E-1,-9.981216E-1,9.458662E-1,1.0489593E0,-1.4641684E0,5.1726025E-2,5.430128E-1,-1.3663042E0,1.0508121E0,-1.0759123E-1,6.570703E-1,-1.5216143E0,-1.8346883E0,2.4959077E-1,9.6019626E-1,-1.9676046E-1,1.0490798E0,9.942178E-2,-1.5746787E0,-1.0114731E0,-9.328982E-2,7.6578355E-1,-1.7471893E0,4.695891E-2,5.2951176E-2,-1.0423553E-2,-1.3823202E0,7.5248957E-1,-2.442996E0,5.0040692E-2,-2.1746175E0,2.3363657E-1,-8.67687E-1,9.2355996E-1,9.731456E-1,-1.5801252E-1,1.0491524E0,-8.7634055E-3,4.7977928E-2,-2.807867E-2,-7.9681456E-2,-4.854418E-2,-6.929591E-2,-4.6404903E-3,4.228418E-2,-1.1289445E-1,-9.279057E-2,4.9989842E-2,-8.1703395E-2,4.7056116E-2,3.9413594E-2,-1.268517E-1,-7.908894E-2,-1.3998184E-1,-1.171323E-1,-3.3527084E-2,-9.871252E-2,4.886706E-2,-1.4161144E-1,3.2907322E-2,5.0985992E-2,-1.1152961E-2,-1.876067E-1,4.9172234E-2,5.246074E-2,-4.1754856E-3],"categories":[],"categories_nodes":[],"categories_segments":[],"categories_sizes":[],"default_left":[0,0,0,0,0,0,0,0,0,0,0,0,0,0,0,0,0,0,0,0,0,0,0,0,0,0,0,0,0,0,0,0,0,0,0,0,0,0,0,0,0,0,0,0,0,0,0,0,0,0,0,0,0,0,0,0,0,0,0,0,0,0,0,0,0,0,0,0,0,0,0,0,0,0,0,0,0],"id":17,"left_children":[1,3,5,7,9,11,13,15,17,-1,19,21,23,25,27,29,-1,31,33,35,-1,37,39,41,43,45,-1,47,49,51,53,-1,55,57,-1,-1,-1,59,61,63,-1,65,67,69,71,73,-1,75,-1,-1,-1,-1,-1,-1,-1,-1,-1,-1,-1,-1,-1,-1,-1,-1,-1,-1,-1,-1,-1,-1,-1,-1,-1,-1,-1,-1,-1],"loss_changes":[4.7268625E4,4.845954E3,9.549844E2,1.3425859E3,6.273323E2,5.4564185E2,3.128125E1,6.76875E2,6.589578E2,0E0,6.136841E1,3.8009283E2,2.7741446E2,2.2393091E2,1.08046875E1,4.677754E2,0E0,2.919571E2,2.399306E2,1.1306519E1,0E0,3.0749292E2,1.9868283E2,1.1226886E2,8.1658295E1,1.7056616E2,0E0,8.6484375E0,8.034473E0,8.47207E1,6.340956E2,0E0,1.21808655E2,7.14494E1,0E0,0E0,0E0,4.2916E1,1.79156E2,1.46562195E1,0E0,3.29563E1,4.0254463E1,1.2451649E2,7.6656036E0,1.5601343E2,0E0,6.828125E0,0E0,0E0,0E0,0E0,0E0,0E0,0E0,0E0,0E0,0E0,0E0,0E0,0E0,0E0,0E0,0E0,0E0,0E0,0E0,0E0,0E0,0E0,0E0,0E0,0E0,0E0,0E0,0E0,0E0],"parents":[2147483647,0,0,1,1,2,2,3,3,4,4,5,5,6,6,7,7,8,8,10,10,11,11,12,12,13,13,14,14,15,15,17,17,18,18,19,19,21,21,22,22,23,23,24,24,25,25,27,27,28,28,29,29,30,30,32,32,33,33,37,37,38,38,39,39,41,41,42,42,43,43,44,44,45,45,47,47],"right_children":[2,4,6,8,10,12,14,16,18,-1,20,22,24,26,28,30,-1,32,34,36,-1,38,40,42,44,46,-1,48,50,52,54,-1,56,58,-1,-1,-1,60,62,64,-1,66,68,70,72,74,-1,76,-1,-1,-1,-1,-1,-1,-1,-1,-1,-1,-1,-1,-1,-1,-1,-1,-1,-1,-1,-1,-1,-1,-1,-1,-1,-1,-1,-1,-1],"split_conditions":[2.0111872E-2,-6.7593016E-2,3.1956434E-1,3.509499E-1,-2.5428253E-1,1.3334429E0,4.1984236E-1,7.253404E-1,-2.298543E-1,-8.2781754E-2,1.2813902E0,1.9431139E0,4.0007204E-1,8.4984384E-2,6.061903E0,-3.3977485E-1,5.1726025E-2,-9.3528414E-1,-2.1953507E-1,2.5599906E0,-1.0759123E-1,-3.3977485E-1,-2.220878E-2,-2.6936457E-1,-2.3751087E-1,3.185304E0,-1.9676046E-1,1.5636972E1,-1.1916304E0,-1.0544199E-1,-4.323902E-1,-9.328982E-2,-5.0295377E-1,-2.5797406E-2,4.695891E-2,5.2951176E-2,-1.0423553E-2,-8.312793E-1,2.6711667E0,-3.5374177E-1,5.0040692E-2,-3.1003368E-1,-2.4178483E-1,-2.931563E-1,-7.527949E-1,-2.2587886E0,-1.5801252E-1,3.5919556E1,-8.7634055E-3,4.7977928E-2,-2.807867E-2,-7.9681456E-2,-4.854418E-2,-6.929591E-2,-4.6404903E-3,4.228418E-2,-1.1289445E-1,-9.279057E-2,4.9989842E-2,-8.1703395E-2,4.7056116E-2,3.9413594E-2,-1.268517E-1,-7.908894E-2,-1.3998184E-1,-1.171323E-1,-3.3527084E-2,-9.871252E-2,4.886706E-2,-1.4161144E-1,3.2907322E-2,5.0985992E-2,-1.1152961E-2,-1.876067E-1,4.9172234E-2,5.246074E-2,-4.1754856E-3],"split_indices":[3,932,3,1,2072,2100,3,638,0,0,2075,2088,1,727,1916,1,0,3,2123,2077,0,1,59,143,2098,628,0,1190,0,475,2291,0,1692,1105,0,0,0,2100,2075,1,0,1500,1050,1616,0,0,0,1014,0,0,0,0,0,0,0,0,0,0,0,0,0,0,0,0,0,0,0,0,0,0,0,0,0,0,0,0,0],"split_type":[0,0,0,0,0,0,0,0,0,0,0,0,0,0,0,0,0,0,0,0,0,0,0,0,0,0,0,0,0,0,0,0,0,0,0,0,0,0,0,0,0,0,0,0,0,0,0,0,0,0,0,0,0,0,0,0,0,0,0,0,0,0,0,0,0,0,0,0,0,0,0,0,0,0,0,0,0],"sum_hessian":[1.11760195E5,1.1470633E4,1.0028956E5,1.0300977E4,1.1696562E3,1.9215778E3,9.8367984E4,9.490202E3,8.1077423E2,9.345141E1,1.0762048E3,1.6572415E3,2.643362E2,3.146463E3,9.522152E4,9.381184E3,1.09019264E2,5.404119E2,2.703623E2,1.0710829E3,5.1219697E0,1.5738062E3,8.343537E1,1.5795802E2,1.0637819E2,3.1380535E3,8.409531E0,9.5209336E4,1.2183817E1,7.5384487E3,1.8427346E3,4.512306E1,4.9528885E2,2.3223697E2,3.812534E1,1.0643019E3,6.7809024E0,6.974137E1,1.5040648E3,6.1135536E1,2.2299835E1,1.3561784E2,2.2340183E1,3.9917393E1,6.64608E1,3.1289836E3,9.069637E0,9.520383E4,5.5083847E0,5.0980988E0,7.085718E0,7.3074604E3,2.3098833E2,1.308773E3,5.3396173E2,4.8323962E2,1.2049214E1,2.2371518E2,8.52178E0,6.3191227E1,6.55014E0,1.4886323E3,1.5432449E1,1.949475E1,4.1640785E1,1.214882E2,1.4129642E1,5.212087E0,1.7128096E1,1.7075787E1,2.2841606E1,6.1420513E1,5.040285E0,6.014835E0,3.122969E3,9.519866E4,5.1691294E0],"tree_param":{"num_deleted":"0","num_feature":"2703","num_nodes":"77","size_leaf_vector":"1"}},{"base_weights":[8.0651474E-1,-6.680308E-1,9.7694093E-1,-8.873175E-1,7.0826125E-1,6.140703E-1,1.0087163E0,5.2240676E-1,-1.0434624E0,-1.475642E0,9.146474E-1,6.6154796E-1,-1.2221386E0,1.0102113E0,-1.3543034E0,-7.969304E-2,6.910439E-1,-1.18863E0,-5.0446607E-2,-2.2959923E-2,-7.693293E-2,-7.308658E-2,9.79752E-1,6.958954E-1,-1.4110287E0,-1.4567516E0,8.021628E-1,7.1263033E-1,1.0175418E0,-9.471479E-2,6.4883545E-2,-9.606367E-2,7.594513E-1,-1.3452456E0,-4.7533578E-1,-1.646948E0,2.7005157E-1,9.926105E-1,-6.6575356E-2,7.446565E-1,-6.3125825E-1,-1.6567836E0,-3.4288672E-1,-8.320228E-2,-2.3050351E-1,4.9573995E-2,1.7441241E-2,8.3432096E-1,-6.7511094E-1,1.0210625E0,6.078906E-1,-6.927361E-2,4.1509192E-2,-8.8390924E-2,4.0938966E-2,-6.88406E-2,5.1473152E-2,-7.5845726E-2,-8.875353E-3,-7.836767E-2,-1.0368933E-1,-6.1697908E-2,2.9149083E-2,4.9984664E-2,-4.394366E-3,3.8162712E-2,-9.032164E-2,-7.941984E-2,6.711919E-3,-1.9910684E-2,-8.606664E-2,-8.001385E-2,3.1656947E-2,-7.858632E-2,2.3998624E-2,4.395507E-2,-8.195253E-2,-6.417186E-2,4.8750322E-2,5.1068522E-2,-1.21382706E-1,3.466912E-2,-1.1537584E-1],"categories":[],"categories_nodes":[],"categories_segments":[],"categories_sizes":[],"default_left":[0,0,0,0,0,0,0,0,0,0,0,0,0,0,0,0,0,0,0,0,0,0,0,0,0,0,0,0,0,0,0,0,0,0,0,0,0,0,0,0,0,0,0,0,0,0,0,0,0,0,0,0,0,0,0,0,0,0,0,0,0,0,0,0,0,0,0,0,0,0,0,0,0,0,0,0,0,0,0,0,0,0,0],"id":18,"left_children":[1,3,5,7,9,11,13,15,17,19,21,23,25,27,29,-1,31,33,35,-1,-1,-1,37,39,41,43,45,47,49,-1,51,-1,53,55,57,59,61,63,-1,65,67,69,71,-1,73,-1,-1,75,77,79,81,-1,-1,-1,-1,-1,-1,-1,-1,-1,-1,-1,-1,-1,-1,-1,-1,-1,-1,-1,-1,-1,-1,-1,-1,-1,-1,-1,-1,-1,-1,-1,-1],"loss_changes":[2.6979594E4,3.35765E3,1.109E3,2.112604E3,6.906323E2,6.7653394E2,3.1397656E2,3.4279956E2,1.2452139E3,7.775635E0,2.1769678E2,5.38897E2,9.411795E1,1.9217188E2,4.332669E1,0E0,1.6005481E2,8.4130664E2,5.6473553E2,0E0,0E0,0E0,4.177466E1,4.8153735E2,3.1854584E1,4.4288727E1,1.4540462E0,3.601405E2,1.2384375E2,0E0,1.9470425E1,0E0,1.3122726E2,4.646211E2,4.2113098E2,3.0185547E0,4.3339197E2,1.0451538E1,0E0,3.4159302E2,1.9363354E2,7.4507446E0,3.0913097E1,0E0,2.6076363E1,0E0,0E0,2.183103E2,1.7412056E2,9.334375E1,1.8550961E2,0E0,0E0,0E0,0E0,0E0,0E0,0E0,0E0,0E0,0E0,0E0,0E0,0E0,0E0,0E0,0E0,0E0,0E0,0E0,0E0,0E0,0E0,0E0,0E0,0E0,0E0,0E0,0E0,0E0,0E0,0E0,0E0],"parents":[2147483647,0,0,1,1,2,2,3,3,4,4,5,5,6,6,7,7,8,8,9,9,10,10,11,11,12,12,13,13,14,14,16,16,17,17,18,18,22,22,23,23,24,24,25,25,26,26,27,27,28,28,30,30,32,32,33,33,34,34,35,35,36,36,37,37,39,39,40,40,41,41,42,42,44,44,47,47,48,48,49,49,50,50],"right_children":[2,4,6,8,10,12,14,16,18,20,22,24,26,28,30,-1,32,34,36,-1,-1,-1,38,40,42,44,46,48,50,-1,52,-1,54,56,58,60,62,64,-1,66,68,70,72,-1,74,-1,-1,76,78,80,82,-1,-1,-1,-1,-1,-1,-1,-1,-1,-1,-1,-1,-1,-1,-1,-1,-1,-1,-1,-1,-1,-1,-1,-1,-1,-1,-1,-1,-1,-1,-1,-1],"split_conditions":[-3.931029E-1,-3.254107E-1,-6.678623E-2,-1.8320513E0,-4.071591E-1,3.0477755E0,6.061903E0,-5.362151E-1,-2.9397416E-1,-2.4796684E0,-1.0825579E0,4.6183863E0,3.2835467E0,-1.0719914E0,-3.506409E-1,-7.969304E-2,-2.130385E0,-5.467383E-1,-1.1536089E0,-2.2959923E-2,-7.693293E-2,-7.308658E-2,8.809229E-1,3.0465753E0,-4.2083186E-1,-3.4985808E-1,2.2974846E0,2.2930138E0,3.7972722E0,-9.471479E-2,5.789168E-1,-9.606367E-2,-1.617945E0,3.1264374E-1,-7.0817244E-1,-2.8809834E-1,-1.0698608E0,1.485706E0,-6.6575356E-2,-1.7223771E-1,-6.685876E-1,-2.8569672E0,-6.70073E-1,-8.320228E-2,2.9847315E-1,4.9573995E-2,1.7441241E-2,3.0465753E0,-1.8418981E-1,1.3403451E1,7.268225E-1,-6.927361E-2,4.1509192E-2,-8.8390924E-2,4.0938966E-2,-6.88406E-2,5.1473152E-2,-7.5845726E-2,-8.875353E-3,-7.836767E-2,-1.0368933E-1,-6.1697908E-2,2.9149083E-2,4.9984664E-2,-4.394366E-3,3.8162712E-2,-9.032164E-2,-7.941984E-2,6.711919E-3,-1.9910684E-2,-8.606664E-2,-8.001385E-2,3.1656947E-2,-7.858632E-2,2.3998624E-2,4.395507E-2,-8.195253E-2,-6.417186E-2,4.8750322E-2,5.1068522E-2,-1.21382706E-1,3.466912E-2,-1.1537584E-1],"split_indices":[1,1981,1,0,2161,1963,1916,2078,751,0,1,1772,2500,2070,794,0,2068,1,2086,0,0,0,2086,2287,719,347,2077,1126,2099,0,1,0,811,176,2063,2149,1,1023,0,740,699,2069,2091,0,2061,0,0,2287,1006,1467,2063,0,0,0,0,0,0,0,0,0,0,0,0,0,0,0,0,0,0,0,0,0,0,0,0,0,0,0,0,0,0,0,0],"split_type":[0,0,0,0,0,0,0,0,0,0,0,0,0,0,0,0,0,0,0,0,0,0,0,0,0,0,0,0,0,0,0,0,0,0,0,0,0,0,0,0,0,0,0,0,0,0,0,0,0,0,0,0,0,0,0,0,0,0,0,0,0,0,0,0,0,0,0,0,0,0,0,0,0,0,0,0,0,0,0,0,0,0,0],"sum_hessian":[1.07355984E5,1.112224E4,9.623374E4,9.593974E3,1.5282671E3,7.750017E3,8.848373E4,9.564556E2,8.637518E3,1.3142505E2,1.396842E3,7.555304E3,1.9471286E2,8.842834E4,5.537601E1,6.9967354E1,8.864883E2,7.535689E3,1.1018287E3,8.156079E0,1.23268974E2,3.6676144E1,1.3601659E3,7.43279E3,1.22514336E2,1.7474104E2,1.9971817E1,2.1282498E3,8.630009E4,3.9870674E1,1.5505336E1,2.1930439E1,8.6455786E2,6.1782627E3,1.3574265E3,1.8351993E2,9.183088E2,1.3532079E3,6.957934E0,7.169802E3,2.6298795E2,9.91509E1,2.3363428E1,1.4916763E2,2.5573408E1,1.325103E1,6.720786E0,1.9570365E3,1.7121313E2,8.556323E4,7.3687164E2,5.075727E0,1.0429608E1,1.916957E1,8.4538824E2,6.097629E3,8.063391E1,3.0092523E2,1.0565012E3,1.5861433E2,2.4905586E1,1.5765268E2,7.6065607E2,1.3444696E3,8.738379E0,7.1186074E3,5.1194607E1,1.1638767E2,1.4660027E2,5.18689E0,9.396401E1,9.9305525E0,1.3432875E1,8.435956E0,1.7137451E1,1.9228676E3,3.4168987E1,1.2525814E2,4.5954994E1,8.555629E4,6.935591E0,7.1661957E2,2.0252077E1],"tree_param":{"num_deleted":"0","num_feature":"2703","num_nodes":"83","size_leaf_vector":"1"}},{"base_weights":[8.0072767E-1,-1.0786425E0,1.0241467E0,-1.2764852E0,7.9753417E-1,2.0991305E-1,1.0372126E0,-1.3704153E0,2.1528763E-1,-7.98581E-2,1.025102E0,-4.301762E-1,8.035124E-1,7.244493E-1,1.0402627E0,-1.4178424E0,2.4559109E-1,7.411284E-1,-1.795143E0,1.0423747E0,-9.3275346E-2,-1.0185909E0,6.898325E-1,9.0217435E-1,-2.8609712E0,-4.8810777E-1,8.6528116E-1,1.0404133E0,-1.073936E-2,-1.4806316E0,-6.132734E-1,-8.334377E-2,8.926414E-1,-1.8009238E-1,7.9772174E-1,-1.8786229E0,1.5721364E-3,5.2681483E-2,-2.0450322E-2,-1.5216632E0,2.4299662E-1,8.4711474E-1,-1.21357374E-1,9.325453E-1,-9.910807E-2,-8.4568106E-2,-1.9221134E-1,-3.3558335E0,8.333384E-3,9.055345E-1,-6.626516E-1,1.000425E0,1.0445842E0,-7.62199E-2,-3.8162474E-2,-7.270978E-2,3.608535E-2,5.0894286E-2,-8.571923E-2,4.276043E-2,-1.327755E-1,-8.5432716E-2,-1.2466623E-1,-9.622847E-2,3.5009917E-2,-3.866859E-2,4.7676083E-2,-2.664232E-2,4.4662796E-2,4.8393194E-2,-5.3307444E-2,-8.168753E-2,-2.293494E-1,-1.2282292E-1,2.2438474E-2,4.642361E-2,-6.521659E-2,2.5034193E-2,-1.2029733E-1,-2.8989053E-1,5.031271E-2,5.2261036E-2,4.5293167E-2],"categories":[],"categories_nodes":[],"categories_segments":[],"categories_sizes":[],"default_left":[0,0,0,0,0,0,0,0,0,0,0,0,0,0,0,0,0,0,0,0,0,0,0,0,0,0,0,0,0,0,0,0,0,0,0,0,0,0,0,0,0,0,0,0,0,0,0,0,0,0,0,0,0,0,0,0,0,0,0,0,0,0,0,0,0,0,0,0,0,0,0,0,0,0,0,0,0,0,0,0,0,0,0],"id":19,"left_children":[1,3,5,7,9,11,13,15,17,-1,19,21,23,25,27,29,31,33,35,37,-1,39,41,43,45,47,49,51,-1,53,55,-1,57,-1,59,61,-1,-1,-1,63,65,67,-1,69,-1,-1,-1,71,73,75,77,79,81,-1,-1,-1,-1,-1,-1,-1,-1,-1,-1,-1,-1,-1,-1,-1,-1,-1,-1,-1,-1,-1,-1,-1,-1,-1,-1,-1,-1,-1,-1],"loss_changes":[4.3187945E4,4.0575645E3,9.777578E2,1.3856094E3,5.7008136E2,5.524557E2,8.555469E1,7.131992E2,6.213526E2,0E0,4.9535645E1,4.6190222E2,2.7528406E2,1.5019864E2,1.7148438E1,4.5556836E2,3.3069913E2,1.17311295E2,1.864505E1,1.5919434E1,0E0,2.918033E2,1.2051246E2,6.625696E1,1.651596E1,1.3087244E2,4.895331E1,1.38984375E1,0E0,2.6197852E2,7.3729315E2,0E0,6.6863266E1,0E0,9.367447E1,7.9198914E0,0E0,0E0,0E0,2.953504E2,9.589495E1,1.5169235E1,0E0,5.2441406E1,0E0,0E0,0E0,2.1265823E1,8.7235054E1,4.006006E1,4.3301662E1,3.4209473E2,6.2109375E0,0E0,0E0,0E0,0E0,0E0,0E0,0E0,0E0,0E0,0E0,0E0,0E0,0E0,0E0,0E0,0E0,0E0,0E0,0E0,0E0,0E0,0E0,0E0,0E0,0E0,0E0,0E0,0E0,0E0,0E0],"parents":[2147483647,0,0,1,1,2,2,3,3,4,4,5,5,6,6,7,7,8,8,10,10,11,11,12,12,13,13,14,14,15,15,16,16,17,17,18,18,19,19,21,21,22,22,23,23,24,24,25,25,26,26,27,27,29,29,30,30,32,32,34,34,35,35,39,39,40,40,41,41,43,43,47,47,48,48,49,49,50,50,51,51,52,52],"right_children":[2,4,6,8,10,12,14,16,18,-1,20,22,24,26,28,30,32,34,36,38,-1,40,42,44,46,48,50,52,-1,54,56,-1,58,-1,60,62,-1,-1,-1,64,66,68,-1,70,-1,-1,-1,72,74,76,78,80,82,-1,-1,-1,-1,-1,-1,-1,-1,-1,-1,-1,-1,-1,-1,-1,-1,-1,-1,-1,-1,-1,-1,-1,-1,-1,-1,-1,-1,-1,-1],"split_conditions":[2.0111872E-2,-6.790499E-2,2.8153858E-1,4.9484766E-1,-2.5428253E-1,4.9484766E-1,3.587783E-1,4.1207697E-2,-2.298543E-1,-7.98581E-2,1.2477598E0,-2.4025136E-1,9.949905E-1,2.121808E-1,1.0910852E1,-2.1953507E-1,-4.607105E-1,-1.0151091E0,-8.607749E-2,2.5599906E0,-9.3275346E-2,-3.0444658E-1,-4.3210182E-1,1.4693662E0,-6.3786983E-1,-3.9052203E-1,2.5348327E0,5.120695E-1,-1.073936E-2,-1.3674423E-1,-6.875797E-1,-8.334377E-2,1.7348934E0,-1.8009238E-1,2.0184562E0,-1.3674423E-1,1.5721364E-3,5.2681483E-2,-2.0450322E-2,-1.4815675E-1,-6.621714E-1,-3.3977485E-1,-1.21357374E-1,1.1072537E0,-9.910807E-2,-8.4568106E-2,-1.9221134E-1,-2.5851312E-1,-1.1536089E0,3.8247612E0,-1.05751E0,-2.4544308E0,3.7972722E0,-7.62199E-2,-3.8162474E-2,-7.270978E-2,3.608535E-2,5.0894286E-2,-8.571923E-2,4.276043E-2,-1.327755E-1,-8.5432716E-2,-1.2466623E-1,-9.622847E-2,3.5009917E-2,-3.866859E-2,4.7676083E-2,-2.664232E-2,4.4662796E-2,4.8393194E-2,-5.3307444E-2,-8.168753E-2,-2.293494E-1,-1.2282292E-1,2.2438474E-2,4.642361E-2,-6.521659E-2,2.5034193E-2,-1.2029733E-1,-2.8989053E-1,5.031271E-2,5.2261036E-2,4.5293167E-2],"split_indices":[3,549,3,2,2072,2,3,175,0,0,2075,2282,0,2,25,2123,2294,2060,1501,2077,0,2144,2084,1537,2061,1032,2290,3,0,3,2132,0,2106,0,1037,3,0,0,0,232,2117,1,0,1867,0,0,0,1,2086,2278,0,0,2099,0,0,0,0,0,0,0,0,0,0,0,0,0,0,0,0,0,0,0,0,0,0,0,0,0,0,0,0,0,0],"split_type":[0,0,0,0,0,0,0,0,0,0,0,0,0,0,0,0,0,0,0,0,0,0,0,0,0,0,0,0,0,0,0,0,0,0,0,0,0,0,0,0,0,0,0,0,0,0,0,0,0,0,0,0,0,0,0,0,0,0,0,0,0,0,0,0,0,0,0,0,0,0,0,0,0,0,0,0,0,0,0,0,0,0,0],"sum_hessian":[1.0285246E5,1.0927554E4,9.192491E4,9.885453E3,1.042101E3,1.4520873E3,9.047282E4,9.299958E3,5.854943E2,8.9914345E1,9.521866E2,6.988161E2,7.532711E2,8.760814E2,8.9596734E4,9.034921E3,2.6503745E2,4.6460526E2,1.2088907E2,9.4716626E2,5.020337E0,4.5818942E2,2.406267E2,7.342559E2,1.9015177E1,9.0907295E1,7.8517413E2,8.9586164E4,1.057304E1,8.380092E3,6.548294E2,6.6603485E1,1.9843394E2,5.170573E0,